#include "weights.h"

float * convKernel(){
	static float kernel[] ={0.66249245, 0.58531505, 0.64267814, 0.26326346, 0.1448348, -0.00723475, -0.25567344, -0.41671133, -0.25149533};
	return kernel;

}

float * layerDense1() {
	static float dense1[] = {-0.092633,0.092600,-0.095866,-0.086337,0.145387,-0.051869,0.120103,-0.060424,0.029892,0.116618,0.057838,-0.068110,0.043374,-0.085225,0.153054,0.112810,-0.081522,0.107358,-0.092860,0.020802,-0.041309,-0.053300,0.077293,-0.116708,-0.110545,0.015063,-0.135789,0.055515,0.056494,-0.301848,-0.020880,-0.066968,-0.058195,0.009583,0.010599,0.036540,0.159340,-0.054081,-0.027780,-0.023132,-0.044587,-0.109111,-0.259287,-0.073852,-0.064784,0.125147,0.205918,0.296180,0.237415,0.229853,0.239720,0.141357,0.005673,0.047555,-0.185527,-0.144803,-0.025337,0.086432,-0.079972,-0.089066,-0.177071,-0.262846,-0.244947,-0.282638,0.001702,-0.012225,0.050810,-0.179661,0.011462,0.091676,0.019069,-0.134484,-0.142311,-0.391600,-0.388420,-0.097393,-0.204083,0.012566,0.051503,0.053813,-0.065265,-0.026653,0.098332,0.040196,-0.047550,-0.112390,0.020517,0.046514,-0.054380,0.098404,0.042084,-0.154388,-0.014242,-0.058984,-0.033336,-0.072006,0.049326,0.026488,-0.084180,0.043098,-0.001563,0.016931,-0.073485,0.134089,0.071099,-0.147824,-0.057309,0.079317,0.057119,-0.070436,0.051265,-0.075801,-0.006978,0.079927,-0.058553,0.078836,0.141980,0.040174,-0.030822,-0.022273,-0.005730,-0.001669,0.035529,0.020674,0.082727,-0.050159,0.039571,0.061240,0.055738,0.010998,-0.160764,0.009278,0.028413,0.041531,-0.005827,0.059302,0.123971,-0.092076,0.087234,0.099542,0.021546,0.100005,0.047229,-0.085559,0.038362,0.057151,-0.052589,0.021554,-0.036249,0.079129,0.064789,0.060300,0.102469,-0.116012,0.098979,-0.113091,0.008643,-0.015344,0.027692,-0.009590,-0.172763,0.079780,0.071369,-0.065225,0.020534,-0.113122,0.087666,-0.056224,0.018164,-0.004029,-0.157983,0.153093,0.129374,0.034190,-0.087203,-0.067865,0.024232,-0.074804,0.082475,-0.154728,-0.135869,0.129499,0.017910,0.025925,0.081213,-0.035498,0.094995,-0.006635,-0.094291,-0.059621,0.158602,-0.065158,0.062979,-0.084278,-0.085450,-0.078975,-0.055139,-0.088021,-0.060396,0.123258,0.245920,0.023334,0.142604,0.003129,0.156105,-0.106385,0.057880,-0.154998,0.054606,0.012072,0.037245,-0.039823,0.165870,0.157995,0.203972,0.251407,0.176930,-0.014944,0.030500,0.058228,-0.091409,0.095389,-0.093498,0.102515,0.019900,-0.021601,-0.114693,-0.016563,-0.027501,0.006357,0.012837,0.030212,-0.010205,0.032008,0.051345,0.013908,-0.027914,-0.111843,-0.053474,0.056319,-0.021191,-0.031699,-0.061824,0.075923,-0.118700,-0.012046,-0.047953,-0.120358,0.004036,-0.202180,-0.028966,-0.138918,-0.038278,0.026787,-0.091443,-0.114208,0.066464,-0.157576,-0.034010,-0.037996,-0.033353,-0.153138,-0.073769,0.043273,0.017642,-0.009723,0.009520,0.011932,-0.108310,-0.118875,-0.020384,-0.142963,-0.069574,0.073348,0.038976,0.081242,-0.025381,-0.017945,-0.077184,0.149182,-0.037568,-0.107282,-0.143342,-0.120351,-0.082519,-0.052464,-0.100168,-0.100043,0.028799,0.001584,0.006863,0.051952,0.156437,-0.160698,-0.060849,-0.127396,0.132147,-0.078119,-0.081531,-0.090103,-0.011185,0.062753,0.163811,-0.018163,-0.055270,0.076481,0.076596,0.007119,0.007983,0.159865,0.120961,0.015845,-0.136296,0.195949,0.038681,0.053711,0.104199,0.060171,0.042619,0.101488,-0.003834,0.009862,0.167415,-0.041289,-0.122539,0.054186,-0.097356,-0.176139,-0.149972,-0.037366,-0.081501,0.001251,-0.071774,0.088260,0.110482,0.004289,0.135779,0.143576,0.032853,0.054294,0.134050,-0.068495,0.030159,0.056579,0.122602,0.042946,-0.129542,0.149393,-0.043687,-0.145003,0.051331,0.030865,0.090323,-0.032369,0.132163,-0.148861,0.133240,0.077599,0.135915,-0.055907,-0.030584,0.013282,-0.026503,0.087265,0.025001,-0.148263,0.033124,0.138952,-0.111354,0.074389,-0.020833,-0.030451,0.139913,0.003594,-0.082365,0.077920,0.074424,0.089397,-0.000620,-0.113426,0.010418,-0.005540,0.032506,-0.022857,-0.174959,0.052230,-0.002203,0.054610,-0.005347,-0.018653,0.047361,-0.128670,0.076088,0.011222,0.088448,0.122344,-0.100422,0.009136,0.078119,0.002755,-0.156340,0.063301,0.112516,-0.065403,0.128097,-0.170931,-0.053958,-0.139391,-0.038144,-0.081190,-0.003518,-0.014516,-0.053814,-0.002224,-0.065844,-0.053942,0.127377,0.093981,-0.192781,-0.264834,-0.110523,-0.057056,0.120055,0.042504,-0.075690,-0.028566,-0.001501,0.195890,0.112279,-0.048272,-0.096527,0.015718,-0.022582,0.110089,0.019160,0.119849,0.069200,0.179049,0.208374,0.244791,0.181041,0.017522,-0.056042,-0.136940,-0.042389,0.064170,-0.088379,0.043904,0.060415,-0.008230,0.085369,0.132754,0.030918,-0.003619,0.170114,-0.100781,0.052034,-0.092996,0.042991,0.098650,0.094095,-0.070908,-0.176932,-0.205845,-0.184374,-0.137836,-0.117778,0.016299,-0.084441,-0.091761,0.034061,-0.041456,-0.123407,-0.052467,0.031795,-0.054642,-0.222057,-0.211029,-0.071501,-0.000460,-0.149399,0.036133,0.098365,0.015061,-0.216299,0.076905,0.122830,-0.049183,-0.063426,-0.052153,-0.211279,0.032725,-0.017287,-0.061032,-0.095053,-0.057988,0.081483,-0.155605,-0.111009,-0.038970,0.107136,0.076110,0.007517,-0.168073,-0.158786,-0.018966,0.018548,0.096944,-0.100731,-0.154795,0.030182,-0.053793,-0.137354,-0.000879,0.104613,0.137738,0.039086,-0.083084,0.072791,-0.033874,0.105625,0.084009,0.049570,-0.053277,-0.133288,-0.156315,-0.038942,-0.048666,-0.008648,-0.066479,-0.024829,0.022413,-0.026796,-0.113000,-0.055404,-0.078151,-0.036389,-0.024421,-0.097716,-0.059961,-0.094952,-0.152825,-0.120575,-0.027040,-0.017573,-0.148524,-0.002024,-0.052490,-0.054381,0.038739,-0.179533,-0.214163,-0.046289,-0.124117,0.010735,0.057621,0.043603,0.087867,0.054383,-0.067003,0.032135,-0.080887,-0.073948,0.063510,-0.094149,0.105308,0.047261,0.070481,0.131592,-0.066035,0.108246,-0.016303,-0.030870,-0.017692,-0.180654,-0.122768,-0.077007,0.062104,0.045054,0.074625,0.111017,0.000980,0.019359,0.239905,0.132056,-0.073288,0.111042,-0.097994,0.069586,0.016343,0.055403,0.047070,0.032877,-0.025214,-0.078503,-0.000809,-0.106947,-0.028807,-0.010246,0.157096,0.075885,-0.010259,0.012389,-0.024230,0.048739,-0.031580,-0.079943,-0.004984,0.036890,-0.118399,-0.144350,-0.149268,0.149974,0.047472,-0.101805,0.135450,-0.022312,-0.116066,-0.084416,0.065069,-0.141065,-0.073353,0.087535,0.042003,0.037522,-0.150366,0.144796,0.065715,-0.087402,0.063519,-0.059534,0.139419,-0.081275,-0.074469,-0.148108,-0.164739,0.076630,0.067728,0.122027,0.148628,0.038274,-0.023166,0.054397,0.088826,0.091346,-0.082836,-0.031776,-0.032066,-0.068324,0.093802,-0.166816,-0.198006,-0.033601,0.098506,0.016278,-0.003441,-0.089504,-0.095719,0.006712,-0.062836,-0.207256,0.123477,0.011355,0.079384,-0.132266,-0.005236,-0.027905,-0.150836,-0.014856,0.043398,-0.070389,0.124056,0.065486,-0.111722,0.101536,-0.084845,-0.089416,-0.118538,0.003996,0.096928,-0.111564,-0.083753,0.004075,0.080403,0.038848,0.005358,-0.014341,0.028409,-0.134366,0.130708,-0.072757,0.004172,0.076631,-0.116447,-0.102378,-0.096886,-0.069050,-0.017060,-0.084677,0.096178,-0.091203,0.133243,-0.033620,0.091396,0.120106,-0.022131,-0.083511,0.017797,-0.061982,0.023982,-0.056009,0.052838,0.031707,0.018783,0.048125,-0.117418,-0.075578,-0.005103,0.099399,0.048218,0.073721,0.061682,-0.132420,-0.021129,0.177383,-0.002558,0.112772,-0.155750,-0.038358,-0.071461,0.005237,-0.000421,0.016828,0.083347,0.179177,-0.171308,0.191931,0.014503,0.064342,-0.047658,-0.028857,-0.069776,-0.046388,0.026774,0.102184,-0.044052,0.007121,-0.051509,-0.092391,0.176651,-0.074681,-0.024356,0.100934,-0.017720,-0.056363,-0.197009,0.047281,0.109463,-0.122777,-0.076233,-0.137340,0.067063,-0.015711,-0.096616,-0.104860,-0.096364,-0.161508,0.081968,-0.175225,-0.100424,-0.090139,-0.249218,-0.105139,-0.027579,-0.062197,-0.111884,-0.037826,-0.096812,-0.068938,-0.108842,0.092929,-0.108881,-0.242755,-0.293080,0.076443,-0.059799,0.078046,-0.052851,0.112135,-0.060457,0.007951,-0.111639,0.109933,0.025668,0.006238,-0.116342,0.145536,0.128528,0.175710,0.110071,-0.024217,0.038072,0.022125,0.087250,-0.157753,0.008904,0.046440,0.032861,-0.041826,-0.053523,0.011475,0.082561,0.079445,-0.142874,-0.141621,0.023068,-0.091245,0.040111,-0.087913,-0.019753,-0.124813,0.128527,0.117162,-0.010787,-0.044967,0.099871,-0.003444,0.004859,-0.056028,-0.035195,-0.104545,0.098049,-0.100105,-0.064315,0.012602,-0.037795,-0.113225,0.139345,0.074686,-0.089315,0.027263,-0.108727,-0.099414,-0.002710,0.006732,0.089012,0.064906,0.159421,0.093175,-0.099861,-0.115657,0.005521,-0.010574,-0.050794,-0.082042,-0.076433,-0.137554,0.098066,-0.061564,0.024740,0.041164,0.156322,0.080624,-0.048861,-0.129898,0.014920,-0.175707,0.022053,0.110067,0.133217,0.089680,-0.128380,-0.143827,0.127082,0.059428,-0.099904,0.058014,0.059035,-0.076041,-0.064642,-0.177749,0.014555,0.031632,0.014173,-0.072698,-0.052926,0.059152,-0.062870,-0.000183,0.028388,-0.026518,-0.017684,-0.089083,-0.134881,0.100166,-0.061804,-0.123574,0.026230,-0.014605,-0.064786,-0.116557,0.132291,0.037237,-0.022161,-0.034560,0.010718,0.085719,-0.068420,0.025257,-0.074602,-0.160261,0.018928,-0.006233,0.088560,-0.137438,0.067872,-0.084278,0.003341,0.031495,-0.001699,-0.039251,0.042918,0.018149,-0.081745,-0.066520,-0.000654,-0.012920,0.070259,-0.227427,-0.049285,0.020406,0.072209,-0.136229,0.009958,-0.011890,0.077496,0.051791,-0.160219,-0.009689,-0.144734,-0.368174,-0.178130,0.174583,0.051401,-0.025111,-0.145891,-0.009440,0.152942,-0.093899,-0.093146,0.107594,-0.307730,-0.258512,-0.181590,0.115028,0.193873,-0.077582,-0.092082,-0.035212,0.025166,-0.097013,0.045004,0.062752,-0.202710,-0.065704,-0.143713,-0.017112,0.272987,-0.053567,0.030478,-0.075131,-0.000227,-0.040589,-0.102472,0.145201,-0.040660,-0.118074,-0.195400,-0.145805,0.066155,0.139354,0.163973,0.056933,0.076772,0.098221,0.136008,0.061346,-0.026659,-0.111574,-0.148451,-0.151473,0.025821,0.124294,-0.045645,0.045681,0.106052,-0.109283,0.181841,0.024168,0.130712,0.104118,-0.009392,-0.062087,-0.168520,-0.019391,0.029556,-0.126068,0.143126,-0.002850,0.113876,0.110250,-0.068951,0.153158,0.092366,0.050740,0.056761,0.035107,-0.055396,-0.074563,0.039740,0.091391,-0.106264,0.097236,0.147065,-0.012401,-0.141165,0.064614,-0.101273,0.132241,0.081250,-0.123056,-0.028384,0.093729,-0.028132,0.039921,-0.050697,-0.013680,-0.148483,-0.043748,-0.057375,0.073984,0.069668,0.010644,-0.074219,-0.124952,-0.039979,0.029383,-0.114766,-0.042853,-0.062027,-0.022821,0.127655,0.031886,-0.133619,-0.119173,-0.074542,-0.084706,-0.043125,-0.035601,-0.067848,-0.134091,-0.085782,-0.007772,0.101165,0.166964,0.226507,-0.150700,0.059618,0.077069,0.009231,-0.066228,0.088571,-0.159186,0.012779,-0.027438,0.121167,-0.074049,0.207753,0.022898,-0.015672,-0.145052,0.028218,-0.042856,-0.006402,0.043947,-0.152074,-0.079396,-0.107129,0.038834,-0.048477,-0.014311,0.174505,0.107766,0.106962,0.111336,0.065914,-0.055182,0.046292,-0.215891,-0.042559,-0.048494,0.012985,0.091444,0.078554,-0.053502,-0.088878,-0.064121,0.172267,-0.009072,0.236713,0.118220,-0.060465,0.103441,0.008973,0.128877,0.147895,-0.026325,-0.032473,0.142582,-0.034703,-0.083010,0.106125,0.199755,0.299135,0.158698,0.039509,-0.021867,-0.099912,0.147279,0.000659,-0.138094,0.014708,-0.160665,-0.010763,-0.218444,-0.155579,-0.022658,0.061742,-0.022609,-0.149967,0.023225,0.036040,0.082296,-0.124616,0.042982,-0.072561,-0.175136,-0.236139,-0.111214,-0.055646,-0.022165,0.106724,0.027371,0.005612,0.128464,0.004888,0.111554,0.073363,0.086676,-0.032909,-0.056557,0.080705,0.056319,0.202381,-0.056558,0.061474,-0.060511,0.009641,0.076665,0.085644,0.034454,-0.048235,-0.109168,0.163249,-0.065670,0.113327,-0.014361,0.021692,0.042857,0.073993,0.006883,0.047461,-0.133557,-0.128136,0.006498,0.086908,0.141581,-0.073549,0.147212,-0.160059,0.036123,0.098263,0.124562,-0.028365,-0.065590,-0.055317,-0.054812,-0.108545,0.122473,0.117056,0.070383,0.084570,-0.115100,0.050917,-0.032582,0.116633,-0.010238,-0.094501,0.046966,0.124232,-0.020629,-0.055240,0.106476,0.002165,-0.030311,-0.017437,0.123273,-0.059702,0.115086,0.023734,0.144249,0.112225,-0.035117,0.094013,0.021420,0.039146,0.104908,0.161753,0.206638,0.140139,-0.095830,0.074794,0.002018,-0.004659,0.008120,0.097967,0.075156,0.139490,-0.012988,0.041760,0.161636,-0.084393,-0.017898,0.004761,0.038569,-0.019011,-0.010034,0.100296,-0.073865,0.087437,0.089007,0.090429,-0.080840,0.055125,0.001807,0.100966,-0.042745,0.061414,-0.024715,0.054255,0.133266,0.053561,0.028703,0.124548,-0.048114,-0.073201,-0.061054,0.030658,0.113146,-0.188895,0.023335,-0.087356,0.084897,-0.024010,-0.033471,-0.140336,0.044196,-0.019915,-0.120598,-0.090770,0.074968,0.094422,-0.042224,-0.115206,0.082453,0.014238,0.065435,0.145955,0.018682,-0.070129,-0.006547,-0.130288,-0.026064,0.127494,-0.050792,-0.065263,-0.054573,-0.002450,-0.050331,-0.056534,-0.146971,0.014441,-0.109584,0.019064,0.048482,0.061010,-0.015364,-0.273464,-0.069123,0.082966,0.086471,-0.092596,-0.051532,-0.057831,0.082475,-0.063697,0.000222,-0.029873,0.030854,0.080683,-0.036837,0.091994,0.150200,0.093037,-0.133376,-0.080589,-0.054141,-0.083733,-0.090055,-0.032235,0.053200,0.077458,0.060915,0.071882,0.037610,0.066045,0.033026,-0.018248,0.045776,0.007435,0.059788,0.085993,0.006938,-0.055923,-0.105171,0.013515,0.069352,0.063607,-0.121785,0.054809,-0.128810,0.148863,0.132451,0.142460,0.020228,0.138325,-0.026784,0.050188,0.117843,-0.131819,-0.042880,0.094369,0.107411,0.036769,0.158161,0.156763,-0.124360,-0.109596,0.127069,0.071322,0.011355,0.023210,0.028749,-0.027991,-0.007138,-0.107584,0.109010,0.054183,0.048936,-0.155400,0.060384,-0.043086,0.027741,0.099180,-0.110054,0.045290,0.153186,0.033319,-0.006136,-0.077653,-0.052407,0.034020,-0.092916,0.108409,-0.061178,-0.095943,0.014843,0.103054,-0.136846,0.033479,0.061435,-0.111681,-0.119904,-0.044733,0.079277,-0.104354,0.046477,0.044273,-0.123609,-0.078866,-0.117420,-0.040469,-0.097436,-0.033568,-0.063331,0.092627,-0.076108,-0.047656,-0.152169,-0.164372,0.023514,-0.050699,0.151951,-0.149139,0.109050,-0.108792,0.099281,0.045904,0.038363,0.032606,0.144724,-0.053849,0.002638,-0.101071,-0.119183,-0.140868,0.087235,-0.080069,-0.066242,0.176883,-0.012576,0.155819,-0.070915,-0.034655,0.046880,0.093371,-0.146817,0.074828,-0.179789,-0.023560,-0.007689,0.158317,-0.084430,0.107998,0.096149,0.137410,0.086230,-0.159633,-0.097466,0.019431,-0.070159,-0.117980,0.104601,-0.152614,-0.020559,-0.071286,0.082392,0.001886,0.113902,-0.047995,-0.004436,0.017528,-0.071419,-0.097189,0.145383,-0.056077,0.118773,-0.057402,0.101075,0.073703,0.014698,0.036618,-0.125325,-0.066799,-0.093841,-0.063307,0.105128,0.136807,-0.002925,0.020077,-0.038900,0.045210,0.037909,0.031038,0.052783,-0.022506,-0.035352,0.040987,-0.063478,-0.066009,-0.088802,0.061064,-0.140387,-0.119441,0.003508,-0.061784,0.136234,0.070818,0.041547,-0.018219,-0.154942,0.041454,-0.139199,0.068236,0.058263,-0.007194,-0.148582,0.090555,-0.081951,-0.142000,0.115445,-0.059878,0.118728,0.018370,-0.000029,-0.123205,0.078637,-0.049854,-0.058674,0.053545,-0.118998,0.004498,-0.048639,-0.009576,-0.147767,-0.021126,0.051042,-0.012485,-0.041826,0.121732,-0.158497,0.045609,0.058036,0.006475,-0.093692,0.116983,0.100751,0.098684,-0.156780,-0.090146,0.005096,-0.057009,-0.079168,-0.084875,-0.023777,-0.022403,0.006349,0.144406,0.020496,0.004453,-0.087020,0.142617,-0.120833,-0.027318,0.081718,-0.071723,0.112431,-0.018915,-0.065257,-0.090646,-0.049585,-0.111858,-0.100248,-0.137730,0.089881,0.001095,-0.010850,0.009990,-0.068927,0.030185,-0.052717,-0.094336,0.023379,0.013179,-0.036979,-0.042503,-0.154726,0.073679,0.121213,-0.015875,0.151419,-0.074248,0.003029,-0.084889,-0.012750,-0.013764,0.165826,0.074537,0.170725,-0.048815,0.044226,0.016358,-0.065673,-0.010632,0.006754,0.112370,0.016328,-0.149857,-0.060478,-0.046881,0.149648,0.063811,0.107923,0.080516,-0.015598,0.028405,0.033365,-0.081641,0.136007,0.029776,-0.095236,-0.077959,-0.126055,-0.156716,-0.113883,0.145926,0.095205,0.118613,0.104216,0.184652,0.128718,0.199796,0.090582,-0.070760,-0.163239,-0.081530,-0.092244,-0.126936,0.048281,-0.118742,0.040913,0.081225,0.156535,0.105558,-0.098490,0.075074,0.047296,-0.091766,0.068703,-0.021004,0.045851,-0.048459,-0.104888,-0.205820,-0.196993,-0.001340,-0.088144,-0.295172,-0.095375,-0.006115,0.056991,-0.069378,0.024951,0.050946,0.038867,0.136315,-0.149869,0.066808,-0.185422,-0.156361,-0.111340,-0.041344,-0.038440,0.156538,-0.037112,0.097882,-0.130139,-0.034163,0.130117,0.093651,0.185080,0.128696,0.270588,0.131022,0.152297,-0.068388,0.063099,0.043602,0.096212,0.139051,0.099078,-0.036461,0.132835,-0.154411,-0.042975,-0.015414,-0.108787,-0.122967,0.074141,0.125838,-0.156036,0.078769,0.020942,-0.155412,-0.104932,-0.018367,-0.073781,0.017420,0.090613,-0.135016,-0.069462,-0.023269,-0.148440,0.052768,-0.091119,0.124178,0.103930,-0.002162,-0.135844,-0.068131,-0.112330,-0.159458,0.018209,-0.016577,-0.101247,-0.167957,-0.116910,-0.152596,-0.018184,0.045794,0.033816,-0.038733,0.011777,-0.116354,-0.088567,-0.111395,-0.117774,-0.142906,-0.084146,0.042296,-0.053553,0.095183,0.010007,0.002334,0.060142,-0.023561,-0.021173,0.097298,0.136502,0.134215,0.179790,0.017658,0.225255,0.075049,-0.087925,0.140178,0.097331,-0.046559,0.103651,0.067895,0.183298,0.066662,0.094683,-0.007048,-0.017032,0.066584,-0.006469,-0.024446,0.103693,0.032652,0.090557,0.030833,0.036345,-0.012044,0.074112,-0.061721,-0.013750,0.110934,0.015367,0.102687,-0.051438,-0.004105,0.142236,0.024557,-0.091307,0.148738,0.227918,-0.039535,-0.142903,0.081327,0.183134,-0.123546,0.125559,0.216629,-0.129201,-0.056676,-0.058047,0.195159,0.160330,0.146200,-0.099401,0.003271,0.126924,0.060159,0.053575,0.084167,-0.037766,0.129631,0.036826,-0.022947,-0.038532,-0.069785,-0.097723,-0.118418,-0.182733,0.046307,-0.043558,-0.221153,0.108939,-0.014146,0.067440,0.127845,-0.030410,0.032666,-0.086261,-0.130751,0.032608,-0.150295,-0.161028,-0.122608,0.065772,0.109634,0.109394,0.055000,-0.140687,-0.063709,0.005412,0.029550,0.123268,0.118413,-0.101328,0.051192,-0.117273,-0.209939,-0.129030,0.100442,-0.154054,-0.052125,0.059477,-0.021458,0.031573,0.032705,-0.055400,0.008184,-0.040738,0.101937,-0.025383,-0.050516,0.108635,-0.085733,-0.028555,-0.003395,-0.071842,-0.014815,0.064869,-0.082211,0.121532,0.136810,0.034788,-0.126325,-0.010903,0.159825,0.011324,0.098413,-0.108815,0.119441,-0.007772,0.045428,0.104818,0.092867,0.081189,0.113532,-0.053569,0.036025,-0.014759,-0.047461,0.030074,-0.010212,0.085402,0.031123,-0.016095,0.078582,0.026636,-0.034092,-0.005199,0.031464,-0.070833,0.130227,0.154499,-0.142297,0.042885,-0.031164,-0.055948,-0.041903,-0.091588,-0.036612,-0.002301,0.007534,0.036738,-0.077962,-0.208177,-0.119300,-0.120393,0.103909,0.025617,0.074841,0.211755,0.175442,-0.043672,-0.074173,-0.226906,-0.037552,0.006765,0.029373,-0.105330,0.066955,0.182505,0.300136,0.189253,-0.018209,-0.059363,-0.045094,-0.114846,0.006602,-0.145207,-0.113481,-0.075844,0.144333,-0.112482,-0.132756,-0.354225,-0.423356,-0.229739,-0.150723,0.038838,-0.000455,-0.103272,-0.051300,-0.020187,-0.127754,0.004271,-0.270570,-0.269825,-0.405648,-0.060466,0.020345,0.053623,0.063725,-0.000175,0.158833,0.024408,0.011818,0.203971,0.010538,0.024420,-0.127879,0.049979,0.130602,-0.060682,0.018296,0.068573,0.092994,-0.026272,-0.029375,0.089827,0.032232,-0.019814,0.161527,0.141691,0.034579,-0.120091,0.052850,0.014448,0.158666,0.010902,0.162945,-0.028503,0.126050,0.060981,0.028911,0.224023,0.012251,0.188980,0.134510,0.010882,0.160232,-0.036357,0.051950,0.030270,-0.061560,0.098580,0.131124,0.047031,0.195980,-0.055181,0.023938,-0.023784,-0.015729,-0.058596,-0.050643,0.044217,-0.029926,0.058023,-0.104287,0.084389,-0.152752,0.075367,-0.007842,0.102342,-0.034882,-0.058220,0.127873,0.058915,-0.065871,0.081447,-0.141236,-0.012629,0.123433,0.102280,0.066305,0.114730,0.062299,-0.028964,-0.046424,-0.054121,-0.137109,-0.071647,-0.015207,0.159668,0.090286,-0.049539,-0.081445,0.116012,0.048449,0.026539,0.120323,0.027035,-0.194818,0.086953,-0.101823,-0.034466,-0.000846,-0.139153,0.108659,0.101502,0.053832,0.027878,-0.009353,-0.042964,-0.103936,-0.022302,0.042326,0.003326,0.116440,0.050979,-0.077677,0.027010,0.097928,0.139060,-0.083458,0.004398,0.067041,0.079737,-0.000990,-0.007715,0.108301,0.152554,-0.038861,0.087140,0.027680,0.155136,0.018183,0.057136,-0.008762,0.069945,0.148876,0.228805,0.137622,-0.031987,0.098511,-0.018060,-0.063658,-0.156368,-0.020627,-0.043284,0.103078,-0.170850,0.047177,-0.061471,-0.031861,-0.160378,0.027502,-0.093110,-0.160663,-0.074216,0.064685,0.003103,-0.041254,-0.075639,-0.054111,0.000444,0.050710,-0.240068,0.041732,-0.107058,-0.092789,-0.150302,-0.001630,0.119383,0.002399,-0.005201,0.113412,0.043757,0.031482,-0.172553,-0.257592,0.004976,-0.018890,-0.051041,-0.087399,-0.066456,0.018237,-0.000121,-0.020447,0.063743,0.104504,-0.081345,-0.211164,-0.193268,-0.191284,-0.037947,0.050133,0.135821,0.153345,0.057231,0.130895,0.082335,0.051048,-0.029318,-0.089627,-0.067372,-0.254525,-0.066844,-0.211651,-0.078015,-0.063547,0.086458,-0.103212,-0.029362,-0.128383,-0.102874,0.040009,-0.034888,0.114074,0.094347,0.040418,0.047945,-0.021810,-0.124563,-0.117839,-0.085803,-0.119776,-0.040998,0.028261,0.078321,0.064431,0.104914,-0.082676,-0.047135,0.135588,0.156612,-0.025194,-0.108244,0.150291,-0.119510,0.083620,0.021193,-0.063810,0.081436,0.075880,0.109053,0.018688,0.123017,0.045569,-0.016194,0.146470,-0.034339,0.086175,-0.148693,-0.130007,0.121810,-0.004857,0.108610,-0.117663,0.126743,0.131590,-0.038496,0.114393,-0.037275,0.104980,0.104321,-0.071269,0.037779,0.025882,-0.058055,0.114720,-0.020576,0.168201,-0.073103,-0.013233,0.035919,0.083154,-0.127903,0.082949,-0.057476,0.142650,0.174587,0.173600,0.081192,0.216899,0.128492,0.038147,0.029295,-0.086549,0.035694,-0.012517,-0.076172,-0.074667,-0.011628,0.223198,0.125345,-0.007343,-0.094348,0.104539,0.092449,0.076122,0.000257,0.057293,0.070320,0.153784,-0.096777,-0.042768,-0.056006,-0.157929,-0.043365,-0.050343,-0.072322,0.014435,0.006824,-0.124955,0.061723,0.002851,-0.077577,-0.057696,0.048297,-0.040428,0.068139,0.136210,0.088723,-0.085815,0.131312,0.053640,-0.122054,-0.079471,0.131582,-0.074915,0.053827,0.122593,-0.019213,-0.048457,0.035243,-0.005901,0.101505,-0.037019,0.103293,0.058051,-0.021141,-0.075020,0.099588,-0.079239,-0.100870,-0.018057,-0.062386,-0.171510,0.158906,0.047105,-0.057523,0.024490,0.109254,-0.121531,-0.123326,0.134400,-0.044135,0.007262,-0.079422,-0.183776,-0.048093,-0.077130,-0.127677,-0.025272,-0.007361,-0.051948,-0.046712,-0.112922,0.137801,0.055094,0.040392,0.046195,-0.091767,-0.131528,-0.100405,0.055390,-0.012049,-0.064878,0.045216,0.054426,0.044579,0.093810,0.077758,0.138471,0.151049,0.001285,0.022455,0.177263,-0.102312,0.028217,-0.223179,-0.037302,0.022213,-0.169915,-0.002203,-0.062000,0.046199,0.120888,0.046690,0.011895,0.025059,0.047825,-0.035309,-0.195294,0.124447,-0.151466,-0.121685,0.059119,-0.097006,0.048904,-0.185050,0.027679,-0.186932,-0.148591,-0.190407,-0.021465,-0.022192,0.052524,-0.095757,-0.146526,0.024912,0.000677,-0.050663,-0.024734,-0.077860,0.074627,0.148121,-0.052432,-0.014856,0.056318,0.044317,-0.071232,0.083239,-0.119003,0.072489,0.075126,0.157303,0.025161,0.014204,-0.054885,0.051067,-0.079247,-0.022366,0.068214,-0.136077,-0.000131,0.006016,0.041486,-0.133014,-0.113100,-0.123945,-0.161111,-0.073435,0.000562,-0.037674,0.123056,0.116038,0.081088,-0.123060,0.098772,-0.065490,0.132031,-0.023781,-0.098333,-0.025427,-0.060920,-0.019532,-0.080175,0.079100,-0.122285,0.153685,0.058569,0.112788,-0.053624,0.142756,-0.008454,0.030934,0.032807,-0.020146,0.005018,-0.100903,0.074352,0.066757,-0.030642,0.090604,0.089612,0.025692,0.112181,0.195646,0.096014,0.286047,0.019840,0.071727,0.007832,0.061064,0.038174,-0.033668,-0.069817,-0.105698,0.174313,0.227142,0.296084,0.067620,-0.090601,-0.234234,-0.098463,0.068907,0.061118,0.039883,-0.008215,-0.058653,-0.030136,0.032764,-0.021852,-0.049702,-0.225930,-0.059590,-0.128083,0.022581,-0.100566,-0.092239,-0.002332,-0.103588,0.022597,-0.005935,0.034386,-0.104608,-0.205159,-0.085788,-0.096909,0.051051,0.066117,-0.077764,-0.083417,-0.139751,-0.041827,0.115284,0.159799,0.053234,-0.222486,-0.103851,-0.050707,0.049348,0.077954,-0.016431,-0.114841,-0.055056,-0.083080,-0.132392,-0.028083,0.089590,-0.044548,-0.075021,0.148095,-0.033616,-0.022376,0.047625,0.082834,-0.083766,-0.026116,-0.071217,-0.033542,-0.149453,0.166842,-0.022010,0.019441,0.098546,-0.100596,0.124433,0.143168,0.077382,0.186585,-0.030371,0.122087,0.048046,0.052984,-0.010123,-0.036056,0.108708,0.079485,0.005752,-0.094952,0.143059,-0.110939,0.134118,0.083076,-0.079531,0.000711,-0.041730,-0.145747,0.005356,0.150843,-0.034105,-0.137807,0.127932,-0.122338,-0.007753,0.150386,0.035589,0.060709,-0.008489,0.069532,-0.157230,0.116631,0.035503,-0.096635,0.111406,-0.019954,-0.144537,-0.018143,-0.067325,-0.086965,0.070371,0.087708,0.033919,-0.017602,0.029282,-0.113062,-0.147740,0.043095,0.052554,-0.169450,-0.002613,0.025072,0.006360,-0.017737,0.142790,-0.045786,0.137023,-0.133824,-0.069051,-0.056818,-0.040620,-0.081120,-0.015815,-0.125808,0.082789,-0.012562,0.048443,0.063939,0.065990,-0.109067,-0.114429,0.078188,0.083654,0.164639,0.039772,-0.107563,0.046629,-0.055094,-0.001142,0.060930,0.129333,0.149018,-0.095663,0.057010,0.218786,0.091217,0.283249,0.008920,-0.004814,0.035106,0.008113,0.016828,0.123348,-0.025260,0.095076,0.136668,0.087519,0.116038,0.154832,0.127665,0.003474,0.068547,0.120950,0.176308,-0.024165,-0.000638,-0.042911,-0.139531,-0.140795,0.078890,-0.092390,-0.213818,0.050071,0.013473,0.085110,0.213268,-0.074718,-0.091640,-0.086168,-0.111652,-0.128814,0.069519,0.028919,0.030504,0.045841,0.067589,0.100753,0.114639,0.074514,0.017639,-0.194101,-0.066605,-0.169817,-0.146623,-0.038168,-0.211259,-0.138334,0.019243,0.096280,0.113124,-0.042648,0.000412,-0.024348,-0.088599,0.066487,0.037263,0.072727,-0.156466,-0.089152,-0.061476,0.043564,-0.127809,0.035488,-0.200840,-0.064409,-0.002982,-0.139842,-0.095475,-0.082140,0.065561,-0.144357,-0.018579,-0.088222,-0.012511,-0.125462,0.017745,-0.082250,0.069518,-0.057462,0.105513,0.172672,0.021416,0.129184,0.119866,0.101769,0.074721,-0.057601,0.070141,-0.111128,0.048374,-0.157871,-0.152204,0.157832,0.022196,-0.061132,-0.046917,0.026570,-0.101486,0.138770,-0.053577,0.131928,-0.082373,-0.052155,-0.089734,0.151495,-0.052975,0.045778,0.075012,-0.029719,-0.130249,0.155104,-0.126594,0.086663,0.037728,0.073545,0.068172,-0.026440,0.017998,-0.051551,-0.133718,-0.014129,0.104314,-0.103681,0.017067,-0.061381,-0.036669,0.074845,0.036110,-0.042211,-0.042090,0.120697,-0.010902,-0.013208,0.038283,0.119032,-0.021369,-0.024158,0.067109,0.079969,0.136825,0.037956,0.038585,0.220517,0.165779,0.056239,0.154410,-0.095566,-0.150108,-0.121643,-0.015801,-0.034011,0.097401,0.091366,0.153048,-0.112594,-0.094778,-0.078915,-0.148756,-0.131564,0.109099,0.012907,0.028915,0.058285,0.055763,0.031761,-0.113031,-0.002693,-0.155672,-0.140452,-0.234811,-0.285009,-0.136831,-0.071711,0.118358,0.061782,-0.062854,-0.061636,0.047661,-0.116944,0.068906,-0.037750,-0.053417,-0.050265,-0.178454,-0.128022,0.068356,-0.059888,0.088141,-0.019888,-0.053097,0.117926,-0.057183,0.022599,0.033845,-0.125962,-0.206690,-0.119576,0.076181,0.000400,0.005246,0.074318,-0.072223,-0.177937,-0.188319,-0.124521,0.030071,-0.098069,-0.133434,-0.172207,0.038249,-0.001329,-0.153346,0.058357,0.030930,0.066440,-0.131640,-0.118622,-0.353716,-0.302326,-0.133413,-0.073043,0.050442,0.009667,0.143007,-0.069667,-0.071449,-0.101563,0.073077,-0.075309,0.224211,-0.000777,0.160935,0.173941,0.027439,0.136345,0.031104,0.234580,-0.011780,-0.043299,-0.005891,-0.081808,0.118476,0.163319,0.106509,0.087593,0.066590,0.042275,0.050925,-0.056076,0.131262,0.146434,-0.083111,-0.094077,-0.111620,0.101599,-0.040871,0.089590,-0.017798,-0.014372,0.063829,-0.022460,-0.016734,-0.012361,-0.073250,-0.017313,-0.056817,0.099059,0.081373,0.045967,0.105007,0.069500,-0.025650,-0.106798,-0.122888,-0.108004,0.080621,-0.060967,0.077608,-0.101766,0.069758,-0.060070,0.137834,-0.012150,0.093818,-0.058280,-0.032164,0.109179,-0.086754,0.142755,0.026117,-0.078262,-0.149694,0.024678,0.136475,0.094304,-0.046559,0.059968,0.081192,0.012400,0.090791,0.001190,0.056692,0.112434,-0.024987,-0.122334,0.146986,-0.088925,-0.001944,0.045279,-0.004994,0.046858,0.071334,-0.066114,0.087562,-0.101108,0.019028,0.001492,0.010235,0.108386,0.112829,0.134405,-0.007857,0.101983,-0.057343,0.175638,0.085112,0.128241,0.138237,-0.005668,-0.073549,0.143989,-0.092572,0.058517,-0.030025,-0.036450,-0.139341,0.069125,-0.048372,-0.052921,0.021109,0.157776,0.184937,0.119149,-0.128247,-0.021260,-0.023714,-0.070151,-0.076517,-0.058686,0.113280,-0.062635,-0.169745,-0.072802,-0.009607,-0.111897,0.084818,-0.137758,-0.110952,-0.117717,0.132619,-0.113937,-0.042291,0.024404,0.115828,-0.168090,0.016535,-0.074128,-0.091103,-0.090808,0.139680,0.062649,-0.064651,0.091026,-0.052490,0.056223,-0.078520,-0.116475,-0.092995,-0.103951,0.136261,0.009401,0.089851,-0.013200,0.072532,0.015838,0.056724,0.149937,0.044242,-0.127567,0.022745,0.011191,0.194614,0.128389,-0.007488,-0.106265,-0.138791,-0.135390,-0.026071,0.003614,0.040014,0.036534,0.058160,-0.139880,0.069030,0.046497,0.089318,0.034948,-0.137532,0.060863,-0.025039,-0.093671,-0.020637,0.013979,0.054148,0.091288,-0.015637,-0.023333,0.056843,-0.087327,-0.010734,-0.128687,-0.022080,0.067327,-0.065826,0.052867,-0.078418,-0.097744,-0.048689,0.018611,0.031617,-0.062241,0.106625,-0.148679,0.152121,-0.107718,-0.106525,-0.114556,-0.035343,0.076139,0.129107,0.151229,0.150750,0.028837,0.034139,0.047117,-0.084266,0.153114,0.158121,-0.074489,0.104707,-0.113744,-0.023019,0.137876,0.035508,0.136923,0.080315,0.028211,-0.030355,-0.124822,-0.137803,-0.157481,0.098802,0.144681,0.022211,-0.077981,-0.082397,0.167708,-0.155611,-0.034018,0.107900,-0.008416,-0.149156,-0.077191,-0.073838,0.027190,-0.139418,0.012310,0.068436,-0.037031,-0.001440,0.209435,0.056948,0.103379,-0.108819,-0.122302,-0.149893,0.060335,-0.111389,-0.051860,0.004275,-0.083092,-0.057397,-0.002634,-0.091520,0.017168,-0.023292,-0.039654,0.007305,0.091341,0.110592,-0.065445,0.093968,-0.009331,0.070662,-0.089019,0.007566,0.020405,-0.079102,0.173949,-0.001917,-0.095516,-0.114504,-0.144905,0.048164,0.057530,0.034765,0.068383,-0.144939,0.002101,0.129038,0.062823,0.088431,-0.084791,-0.027623,0.059280,-0.073101,-0.036896,0.064302,-0.010528,-0.029293,-0.089424,0.187903,-0.108511,0.087979,-0.008402,0.044090,-0.095583,-0.014041,0.088528,0.114398,0.025613,-0.002468,0.143705,0.011669,-0.056090,0.063405,0.034174,-0.096666,-0.093839,-0.020926,-0.041751,-0.039236,-0.082303,0.044314,0.132500,0.059857,0.009883,0.072027,0.024600,0.017588,-0.099392,-0.117439,-0.090457,-0.028306,-0.001546,-0.110044,-0.125472,-0.008335,-0.046622,0.100369,0.004119,-0.068318,-0.158850,-0.035792,-0.108390,0.046958,-0.094568,-0.121270,0.068249,-0.034773,-0.174994,-0.131752,-0.069462,-0.054815,-0.036816,-0.029013,-0.129267,-0.072066,0.057605,0.077273,0.029337,-0.096134,-0.014760,0.112457,-0.030733,-0.006529,0.103761,-0.008710,0.019967,0.219438,0.029336,0.072707,-0.159083,-0.141550,-0.156764,0.134752,0.154088,0.067713,-0.148457,0.022588,-0.149260,-0.004437,-0.069786,-0.016729,0.068370,0.089347,0.027101,0.038180,0.032555,0.046123,0.138959,0.022295,-0.081186,-0.189049,0.080109,-0.171204,-0.084620,-0.078441,0.139411,-0.078002,0.022761,-0.096814,0.150522,0.101384,0.090956,-0.054995,0.055996,-0.105888,0.052550,-0.059337,-0.038711,0.089245,0.111618,0.132309,-0.057969,0.084484,0.008568,0.057323,0.064513,0.041784,-0.102798,-0.051489,0.029421,0.053355,-0.099018,0.093954,0.057528,-0.006758,-0.074716,0.000200,0.020196,0.047048,-0.046790,0.063049,-0.003250,-0.096377,-0.117506,0.046854,0.015491,0.128553,0.039049,-0.026966,0.081771,-0.286113,-0.254395,-0.065454,0.076707,0.059150,-0.128501,0.035327,-0.097877,0.140230,-0.000158,0.022891,-0.142449,-0.222910,-0.235138,-0.061239,-0.188069,-0.001324,0.095964,-0.001819,0.066447,0.106180,-0.110298,-0.140875,0.124553,-0.099585,0.005936,-0.054837,-0.039952,-0.147541,-0.125825,0.147326,-0.137258,0.028110,-0.025329,-0.047302,-0.030066,0.112617,0.008917,0.063353,0.056630,0.011279,-0.192025,-0.048273,0.133495,-0.187833,-0.194059,-0.008694,0.082022,-0.048246,0.053652,0.069232,0.083516,0.186150,0.043024,-0.079811,0.094818,0.009504,0.016749,0.101395,0.025762,-0.034823,0.174571,-0.001665,0.006444,0.059641,0.244251,-0.071917,0.145087,-0.020517,0.071707,-0.002909,0.176933,0.111655,0.177646,-0.016859,0.104419,0.054251,0.000375,0.022852,-0.039652,0.080660,0.089275,0.088405,-0.084446,0.183929,0.114023,0.026995,-0.087754,-0.179509,-0.041205,-0.050248,-0.064235,0.100707,-0.034102,0.122227,-0.011319,0.206742,-0.021895,-0.067149,-0.036787,0.154592,-0.075309,-0.001157,-0.071032,0.005632,-0.091975,0.105413,0.091300,-0.002886,0.062881,0.122781,-0.043673,-0.065593,-0.084035,0.034246,0.002013,-0.017604,-0.121587,0.022702,-0.022673,0.014249,-0.061548,0.072850,-0.141760,-0.156257,0.123536,-0.036156,-0.155383,-0.043948,-0.090868,-0.156582,0.041205,-0.077368,-0.011049,0.052529,-0.169341,0.023819,0.083599,-0.122533,0.089942,0.004734,-0.081282,0.006838,-0.064137,0.044693,0.133305,0.049210,-0.118228,0.046627,0.005096,-0.007761,-0.028502,-0.115076,0.083259,-0.039763,-0.156622,-0.035803,0.119479,-0.010258,-0.066021,-0.115315,-0.049107,-0.054277,0.034286,-0.116585,0.008958,-0.188465,-0.150390,-0.004834,0.065549,0.166025,0.000255,-0.125587,-0.043070,-0.098381,-0.046642,-0.056106,-0.099486,-0.035135,0.123677,0.023351,0.182248,0.061212,-0.134091,-0.143631,-0.031814,-0.092280,0.101302,-0.125870,-0.104980,0.060595,0.164231,-0.036902,0.001496,-0.035958,-0.093321,-0.178464,-0.130928,-0.123369,0.014677,-0.009968,0.219721,-0.103125,0.042403,0.160030,0.022689,0.046361,-0.048671,-0.104264,-0.359127,-0.063108,0.003213,0.148140,0.179763,0.165825,-0.029238,0.070612,0.045783,0.033671,0.213387,0.153964,0.158389,0.019253,0.053872,0.001626,0.038410,0.045826,-0.024169,-0.020511,0.002293,0.025476,0.059568,0.021293,0.089390,0.024717,0.213359,0.060525,0.082150,-0.053126,0.073359,-0.199909,-0.066996,-0.003815,-0.079249,-0.199292,0.019670,0.070261,-0.078898,0.072874,0.152366,0.042771,0.022379,0.038362,-0.165973,-0.098045,0.075049,-0.067878,-0.064069,-0.003996,-0.023130,-0.156420,0.086814,-0.025448,0.009489,0.038233,-0.066874,-0.069143,0.143886,-0.110284,0.062520,-0.047703,-0.029582,-0.131378,-0.001570,0.091080,-0.040558,0.157082,-0.067948,0.090862,0.078832,0.146965,-0.075576,0.000430,0.099519,-0.148466,0.030212,0.098008,-0.077675,-0.139794,-0.020889,0.061707,-0.039722,-0.025599,-0.148754,0.098493,-0.119223,-0.019160,-0.034926,0.089937,0.000628,-0.016151,0.091124,-0.076991,0.051571,-0.104712,0.083833,-0.080761,-0.079434,-0.032780,0.090653,0.057011,0.070197,-0.126739,-0.154288,-0.144570,-0.056368,-0.002651,-0.120869,0.105357,0.087906,0.135228,-0.173640,-0.102963,0.120829,0.024734,-0.051509,-0.173334,-0.200524,0.002420,-0.016490,-0.020330,-0.022947,0.118909,-0.003359,-0.054873,0.067699,0.034136,-0.013537,0.083990,-0.156612,-0.016901,0.002794,0.032573,0.146367,-0.098020,-0.014437,-0.041811,0.005277,-0.169177,-0.066663,0.119630,0.035552,-0.067597,-0.176671,-0.087463,-0.262172,-0.214844,-0.013125,0.131106,0.006142,-0.003817,0.101035,-0.137773,0.078975,0.135914,-0.054667,0.120917,0.019776,-0.029407,0.056895,-0.002691,0.130944,0.028368,-0.099140,-0.095539,0.139471,0.058788,-0.039567,0.030976,0.069550,0.134741,0.055956,-0.039728,0.129257,-0.026488,-0.038683,-0.007110,0.097248,-0.012623,-0.059649,-0.022094,0.083125,-0.063070,-0.090437,-0.021382,-0.088731,-0.096584,-0.090792,0.099040,-0.179285,-0.131851,0.006235,0.046331,0.105479,0.193902,0.028340,0.080908,0.023706,0.096141,-0.049313,-0.033767,0.020844,-0.183534,-0.004960,-0.019354,0.027634,-0.088257,0.016951,0.144846,0.026530,0.076453,-0.015266,0.091574,0.043123,-0.055016,0.009765,-0.080388,-0.166872,-0.051989,0.000694,0.006632,0.011192,-0.037984,-0.090512,-0.056285,-0.003994,-0.096756,0.158108,-0.058421,0.076684,0.116683,0.113770,-0.107030,-0.054608,-0.122810,0.093936,-0.155969,0.055125,0.149227,-0.032153,-0.050024,0.133803,-0.094738,-0.040732,0.031954,0.023535,-0.084772,0.137562,-0.091645,-0.051341,-0.007427,-0.070405,-0.140953,0.113050,-0.142833,0.094232,-0.071629,0.033984,0.044810,0.029878,-0.068822,-0.000558,-0.028273,-0.118472,0.070875,0.095546,0.120986,0.076962,-0.003605,-0.012382,-0.036767,0.011061,-0.116321,0.037465,0.081679,0.073810,0.023291,-0.029353,-0.024897,-0.090149,0.067670,-0.043865,0.116836,-0.124854,-0.019521,0.046548,0.063575,0.002700,-0.042406,0.085934,-0.098333,-0.132501,0.146020,0.066289,-0.000989,-0.000624,0.034504,-0.064453,-0.121633,-0.044855,-0.043222,0.002484,-0.106239,-0.050058,0.008216,-0.105052,-0.031928,-0.045754,-0.060143,-0.009549,-0.019991,0.178337,0.182360,0.105615,0.020810,0.000475,-0.179610,-0.131938,0.062396,-0.042999,-0.068369,0.098967,-0.041831,0.230125,0.272954,0.033825,0.149339,-0.012335,-0.080150,-0.158919,-0.044626,0.067057,0.011490,-0.034616,-0.353311,-0.332779,-0.089773,-0.107772,-0.033739,0.071409,-0.028361,-0.006111,0.072115,-0.047913,0.078490,-0.054045,-0.074374,-0.409565,-0.479053,-0.472916,-0.287383,-0.063538,0.094188,0.097764,0.001807,-0.091492,-0.036268,-0.071595,0.062325,0.115201,0.138948,-0.011971,0.089815,-0.050920,-0.098521,-0.155592,-0.008366,0.029351,-0.005878,0.089598,0.160375,0.043879,0.030292,0.049995,0.190446,0.036695,0.023855,0.097341,-0.000993,-0.035172,-0.062646,-0.034292,-0.096361,0.126509,-0.064622,0.206474,0.069833,0.033714,0.035828,0.036425,-0.079870,0.027371,-0.112952,-0.043403,-0.132927,-0.034693,0.149005,0.017373,-0.101370,0.133683,0.007758,-0.071767,0.030163,-0.050377,-0.039456,0.161684,0.138211,0.123831,0.044311,-0.017543,0.152442,0.057020,0.068324,0.008960,0.124158,0.082389,0.127541,-0.199279,0.041287,-0.043892,-0.007020,-0.050429,0.065711,0.047338,-0.149200,-0.060987,-0.022514,-0.053192,-0.055099,-0.137754,-0.159210,-0.120018,-0.039687,-0.169156,0.041702,0.039757,-0.135366,-0.036446,-0.140098,-0.025982,0.021938,0.107109,0.106261,0.028696,-0.042381,-0.132739,-0.105834,-0.171668,-0.078788,0.111537,0.077467,-0.073725,0.042091,0.122889,0.105162,0.035878,0.070878,0.052211,-0.042144,-0.156954,0.003274,-0.092193,0.148219,0.081701,0.133855,0.076255,0.143872,0.148209,0.112032,0.180538,-0.037533,0.050399,-0.174858,-0.251231,0.109322,-0.055905,0.156637,0.079425,0.118622,-0.029083,0.143091,0.154849,0.068718,0.166127,-0.005137,-0.019632,-0.003356,0.065340,0.139258,0.043234,-0.008152,0.030524,-0.128617,-0.129159,0.105628,0.232237,0.006864,0.081184,-0.114421,-0.160779,-0.061805,0.052081,0.141294,-0.069758,0.081190,0.074282,-0.038552,0.012173,0.089790,-0.165785,-0.114779,-0.004381,-0.064638,-0.125251,-0.045649,-0.115519,-0.001481,0.072929,-0.005851,0.018502,0.061373,-0.090973,-0.123164,-0.119876,-0.110718,-0.049597,0.103457,0.036980,-0.178587,-0.242611,-0.204345,-0.135171,-0.103363,-0.156755,-0.063104,-0.120133,-0.282703,0.022656,0.012592,-0.131382,0.021599,-0.014338,-0.097926,-0.114261,-0.089698,-0.132614,-0.172097,-0.002913,-0.271196,-0.028833,-0.050231,0.132544,0.156691,0.064049,0.174449,0.025236,0.103667,-0.100508,-0.098186,0.011483,0.000738,0.098768,-0.012860,0.069207,0.096543,-0.072517,0.063451,0.027353,-0.135411,-0.118185,0.093220,-0.086966,-0.084549,-0.061800,0.046418,0.102687,0.123528,-0.129780,-0.107792,0.151923,-0.075066,-0.137316,0.109519,0.054834,0.021658,0.015135,0.050034,0.065520,-0.046562,-0.123158,0.119699,0.153706,-0.134036,-0.113544,-0.056149,-0.115632,-0.018407,0.097831,-0.079225,-0.011900,-0.017629,-0.096269,0.128284,0.073159,0.107571,0.135432,0.100982,-0.076149,-0.151689,-0.101132,-0.078777,-0.018785,-0.131355,0.011774,0.041899,0.073317,0.045032,-0.041312,-0.133856,0.041664,0.100188,0.147870,0.028637,0.009189,-0.071663,0.084912,-0.130720,-0.124024,0.057987,-0.214134,0.028257,0.172940,-0.036106,0.079195,-0.043519,0.092151,0.056561,0.145239,0.231014,0.190725,0.140402,0.019024,0.097937,0.032727,0.111840,0.133400,-0.036566,0.061384,-0.001272,-0.165113,0.050362,0.052300,0.197445,0.177079,0.105214,-0.102644,0.048442,0.005104,-0.029164,-0.022344,-0.002811,-0.067867,-0.144293,-0.096976,-0.060150,0.035597,0.088794,0.143878,-0.130074,-0.024933,-0.110030,0.068505,0.044254,-0.051948,-0.146537,-0.101241,-0.074335,-0.114650,0.087875,-0.019477,0.072971,-0.036663,0.113988,-0.105949,0.029503,-0.087581,0.106738,-0.035942,-0.067233,-0.089505,0.010168,0.045904,0.084459,-0.066527,-0.071311,-0.112656,-0.090989,-0.033073,-0.015063,-0.053724,-0.004163,0.128472,-0.068545,0.077224,-0.039012,0.012582,0.065886,-0.005385,-0.071028,0.055314,-0.136250,-0.087904,-0.046622,-0.003798,-0.028401,0.042389,0.118909,-0.016525,-0.037216,-0.137437,-0.016634,-0.111986,-0.031092,0.153234,0.037206,0.070478,0.034858,-0.000001,-0.004959,0.125479,0.178731,-0.038868,-0.025975,0.086996,-0.070226,0.046676,-0.002050,0.060883,-0.039523,-0.041496,-0.004250,0.143406,-0.111916,0.083271,0.056690,0.103213,-0.103951,0.127369,-0.132391,0.159352,-0.043461,-0.005877,-0.019702,-0.055770,0.084332,-0.086131,0.010324,-0.128615,-0.080442,-0.121142,-0.137736,-0.109302,0.034676,-0.016756,-0.045196,-0.120427,-0.165913,-0.056015,0.064338,-0.053779,0.073602,0.137365,-0.061717,0.134458,-0.001151,0.131864,-0.002870,-0.032045,0.179126,0.245592,0.108181,0.137087,0.031885,0.098215,0.024213,0.084198,0.024507,0.125168,-0.175696,-0.091938,0.184311,0.162622,0.014308,0.013001,0.073987,-0.137989,0.051818,0.003269,-0.050239,0.141720,-0.102049,-0.210037,-0.305550,-0.354874,-0.294793,-0.068706,-0.034463,0.009836,-0.057168,0.028665,0.027477,-0.148500,0.127425,0.025218,-0.040154,-0.121241,-0.035902,0.002395,0.023630,0.053645,0.085771,-0.026356,0.053333,-0.107336,0.118385,-0.119818,0.073978,0.046034,0.043804,0.136301,0.016159,-0.123798,0.072599,-0.015877,0.035599,-0.059034,-0.006072,0.022540,-0.085571,0.172895,0.185611,-0.081546,-0.102814,-0.012631,0.037791,-0.080110,0.006461,-0.038916,-0.002188,-0.069970,-0.060048,0.077178,0.110567,-0.022519,0.132773,0.082806,0.008728,0.070632,-0.003683,0.120888,-0.017768,-0.181941,0.147893,-0.002104,-0.046576,0.078897,-0.183039,0.047564,-0.077412,-0.103854,0.014354,-0.000383,0.055370,0.062509,0.035701,0.089180,-0.074061,0.145876,-0.034099,0.005798,-0.115436,-0.003911,-0.053526,-0.021998,-0.081475,-0.056611,0.014311,-0.027426,0.007381,0.018384,-0.012976,-0.114089,0.103756,0.052303,0.041172,-0.117614,-0.035001,0.071639,-0.011979,0.003047,-0.089632,0.055514,-0.036390,0.159452,-0.022312,0.046072,-0.123704,-0.118006,0.026661,-0.023173,-0.127286,0.049965,0.030181,0.054067,0.043768,0.117112,-0.063510,0.126688,-0.101511,-0.074715,0.062042,-0.109314,-0.003213,0.059317,-0.085018,0.058512,0.141812,0.023748,-0.113358,0.045474,-0.036586,0.143382,-0.103408,0.058266,-0.056234,-0.031349,-0.057452,-0.112241,0.001962,0.001392,0.001981,0.056469,-0.131511,-0.008760,-0.045681,0.073967,0.033068,-0.045126,-0.036484,0.013345,-0.024720,-0.053018,0.013891,-0.147268,0.098390,-0.141166,-0.000958,0.044916,0.081929,-0.048190,0.051609,0.036738,0.163482,0.241304,0.315988,0.097573,0.268434,0.130191,-0.007861,0.044264,0.028559,0.107438,0.131868,0.051948,-0.134837,0.024882,0.140650,0.059696,0.000081,0.192942,0.098145,0.118273,0.043374,-0.121016,-0.019011,0.069703,0.007233,-0.099226,-0.153703,-0.218680,-0.115704,-0.020737,-0.156181,0.079258,-0.109784,-0.017435,0.076549,0.016605,0.076405,0.117970,-0.098120,-0.003688,-0.032059,-0.163187,-0.097412,0.046067,-0.069903,0.037074,0.021583,0.120434,-0.043229,0.015158,0.080468,0.029936,-0.043564,0.168506,0.096391,-0.194240,-0.166377,0.088445,0.063608,0.051361,-0.093779,-0.075075,-0.097019,0.035950,0.008387,0.002305,0.156232,-0.057371,-0.020238,-0.071264,-0.162066,0.028663,-0.156028,0.024352,-0.021734,-0.137152,-0.029194,-0.057365,-0.052578,0.053940,-0.050645,-0.011430,-0.080934,-0.099292,0.085481,0.002378,0.069464,-0.130100,-0.029723,-0.006048,-0.013009,0.122565,-0.109855,0.021394,-0.020862,0.082358,-0.150824,0.103177,0.129678,-0.094949,-0.090782,0.102966,-0.126781,0.010241,0.152468,0.033796,0.083304,0.102363,0.017866,0.113898,0.104135,-0.074326,0.038257,-0.063362,0.094688,-0.054883,0.046079,0.120464,0.044993,0.038821,0.050501,0.102262,0.090683,0.002684,-0.155777,0.044494,0.060397,0.102875,-0.096050,-0.071243,-0.055950,-0.085348,-0.104033,-0.025595,-0.073341,-0.060677,0.076465,-0.007407,-0.119305,-0.021142,0.030815,0.098872,-0.003257,0.018392,-0.112947,-0.035488,-0.027890,-0.089911,-0.082527,-0.011186,-0.080558,0.114679,0.104415,0.027137,0.048949,-0.030091,0.028835,0.003891,-0.052742,0.076417,-0.067706,-0.114726,0.097524,0.031666,0.041074,0.151066,0.060494,0.068457,0.087675,0.036524,-0.032046,0.016645,0.000732,0.116651,0.020878,-0.123873,-0.041921,-0.086103,-0.022658,-0.044632,0.079377,-0.152753,-0.099283,-0.055523,0.003083,0.005973,-0.021574,0.014554,0.096536,0.118333,0.000755,-0.159462,0.155799,-0.088463,-0.328490,-0.128427,-0.042682,-0.088053,0.144540,-0.030980,0.148219,0.096726,-0.112537,0.142510,-0.014849,0.202415,-0.094790,-0.425360,-0.064686,0.122734,0.079279,0.047665,0.174858,-0.129213,-0.054308,0.124361,0.092827,0.043982,-0.080619,-0.147264,-0.083894,0.182563,0.081692,0.164023,0.110760,0.008812,-0.002408,-0.150232,0.009033,-0.029418,-0.114354,-0.174879,-0.174636,0.069588,0.169746,0.029094,-0.042730,-0.083482,-0.032706,-0.064945,-0.072247,0.106882,-0.019766,-0.112525,-0.036794,0.007502,0.195581,0.111392,0.012743,-0.035108,-0.061562,-0.127250,-0.061841,-0.020887,0.102749,-0.146167,-0.018977,-0.149369,-0.015721,-0.032946,0.099809,0.067817,-0.141083,-0.113148,-0.058399,-0.134427,-0.016658,-0.120280,-0.026695,0.026272,-0.014780,-0.108881,0.081496,0.043071,0.038413,-0.093617,-0.098408,0.110545,0.079683,0.144540,0.025830,-0.059864,0.014535,-0.129411,0.093801,0.101925,-0.019675,0.004678,-0.043936,-0.070616,-0.143359,0.026383,-0.032169,0.055296,0.083777,-0.055552,-0.027008,-0.159254,-0.113184,-0.015694,-0.073405,0.028604,-0.013791,0.006176,0.111186,-0.010908,0.131238,0.048981,-0.150744,-0.063775,-0.008673,-0.003016,0.016720,-0.072852,0.165995,0.028156,0.017509,0.021075,-0.047938,0.036358,0.018591,-0.044341,0.032108,0.022940,-0.021451,-0.074407,0.047915,-0.106671,0.225144,0.215645,0.027705,-0.064851,0.080014,-0.053111,0.132840,-0.005508,0.054572,-0.104865,-0.084871,0.045851,0.030552,0.053998,0.160388,0.199190,0.013117,-0.087240,0.046957,0.027547,-0.050270,0.122247,-0.006258,-0.099210,0.061245,-0.016392,-0.062188,0.053389,0.010457,-0.058983,-0.141527,0.052846,-0.020051,-0.000320,0.178948,0.047269,0.088925,0.063495,0.106718,-0.100178,-0.091101,0.125792,0.088651,-0.000628,-0.105067,0.023034,0.046970,-0.043553,0.106466,-0.062312,0.084664,0.086967,-0.106003,-0.059477,-0.027375,-0.099808,0.004676,0.084592,-0.120577,-0.058135,-0.043214,-0.042463,0.037112,0.171806,0.044281,-0.094761,0.059119,-0.027736,-0.147265,-0.046543,-0.106148,0.080814,0.001785,0.046678,-0.006213,0.082771,0.099254,-0.118055,-0.042764,-0.026263,-0.080049,0.091984,-0.131943,0.032334,0.044367,-0.054590,0.046333,-0.061203,-0.120837,-0.087304,0.032386,-0.015695,0.087001,0.040356,0.092270,-0.155691,-0.026091,-0.039613,0.066408,-0.004884,0.032873,0.051707,0.064832,0.048894,-0.036127,0.034892,0.011269,-0.052062,0.119119,0.015354,-0.083461,0.059025,-0.090040,0.042106,0.019580,0.072843,0.132116,0.053632,0.050872,-0.112197,0.136425,-0.063083,-0.016778,-0.056146,-0.145405,0.058165,0.128380,-0.090952,0.048280,0.153511,0.013987,0.143283,0.156557,-0.149638,-0.140496,-0.104141,-0.016730,-0.033507,0.156427,0.064744,0.029135,-0.003027,-0.107281,0.162131,-0.029389,-0.152708,0.028547,-0.035610,0.023962,0.011836,-0.071383,0.047032,-0.069182,0.007272,-0.034222,-0.123553,0.103677,-0.022285,-0.138622,-0.017535,0.019042,-0.030611,0.004132,0.004676,-0.056399,-0.105990,-0.004923,0.041460,-0.025590,-0.131462,0.042248,-0.154312,0.154702,-0.040882,0.138282,0.016457,0.047329,-0.025788,0.027594,0.003174,-0.102017,-0.035006,-0.130473,0.021537,-0.159233,0.035492,-0.001358,0.070164,-0.035342,-0.047620,0.200736,0.178587,0.056416,0.008270,-0.016390,-0.014591,-0.062700,0.012734,-0.119331,0.166788,0.067400,0.239803,0.145743,-0.081618,-0.151092,-0.011210,0.101756,0.132355,0.062451,-0.107868,0.199938,-0.035464,-0.117389,-0.194721,-0.217556,-0.177809,-0.086659,-0.098586,0.087132,-0.055444,0.121017,0.055769,0.102931,0.138410,-0.015688,0.028546,-0.260094,-0.197275,-0.116825,-0.029630,-0.036276,0.031655,0.031060,0.205371,0.096113,0.078449,-0.101985,-0.062425,-0.157195,-0.034974,0.069262,-0.059807,0.132273,-0.131282,0.043140,-0.011232,0.089603,0.128440,-0.017512,-0.004576,-0.084066,-0.077465,-0.108895,0.027027,-0.132547,0.082853,-0.121202,0.063496,-0.089298,0.010857,0.071995,0.050565,-0.142579,0.140380,0.080638,-0.033388,0.086031,0.074256,0.050859,-0.082699,-0.032267,0.013572,-0.151718,-0.127528,-0.004023,-0.154331,-0.152988,0.153264,0.118004,-0.075029,-0.074721,-0.097862,0.021014,0.061334,-0.049276,-0.000625,-0.032782,0.045361,0.058236,0.060775,0.054225,0.152500,-0.099134,0.044355,0.115354,0.012762,0.026212,-0.079572,0.033583,-0.111433,0.159554,0.111505,0.142305,-0.074197,0.136755,-0.013176,0.038079,0.100587,0.062816,0.082598,-0.073994,0.116345,-0.029380,0.000048,-0.131547,-0.109026,-0.063380,-0.012367,-0.104981,0.001694,0.034030,0.018244,-0.116828,0.160848,0.086758,0.064713,0.112309,0.074784,0.092895,0.008122,-0.092724,-0.007047,0.018950,0.137154,-0.102296,0.115136,-0.038406,0.104546,-0.142648,-0.058355,-0.087306,-0.091523,-0.060147,0.075601,-0.079224,0.026239,-0.024033,-0.146153,-0.105443,-0.038022,-0.077063,-0.115924,0.140826,0.131938,-0.157569,0.105342,-0.094509,-0.125562,-0.136587,-0.111884,-0.080010,0.086949,0.148102,-0.011601,-0.117222,0.059016,-0.078286,0.057643,0.041640,-0.101683,-0.195654,-0.026658,0.021833,0.189883,0.012710,0.208151,0.050385,0.184336,0.131247,-0.134225,-0.058220,-0.084173,0.047867,-0.054915,-0.022159,-0.057173,-0.155388,0.176268,-0.045146,-0.071002,0.106762,0.130900,-0.100060,-0.016682,-0.139104,-0.146619,-0.049725,0.051931,0.135731,0.085012,-0.043371,-0.042959,-0.022692,0.045839,-0.047602,0.133877,-0.070595,0.062123,0.049173,-0.081991,-0.057546,-0.064263,-0.007542,-0.126883,-0.188000,-0.145649,0.011566,0.072539,-0.133456,0.126653,-0.060861,0.045664,0.003966,-0.147550,0.003692,-0.117976,-0.040824,0.018483,-0.164634,-0.125808,-0.037118,0.101936,-0.080282,-0.135367,0.090964,-0.064892,-0.046173,-0.033192,0.137646,0.116313,0.001292,0.113629,0.195020,0.164483,-0.145257,-0.087250,0.132068,-0.020656,-0.075073,0.040683,-0.099816,0.019293,0.085603,-0.009322,0.034459,-0.004885,-0.008335,-0.045031,-0.111110,-0.144705,-0.103126,0.037822,-0.029553,0.021015,-0.071651,0.023415,0.068456,0.005199,0.127550,0.088878,-0.024893,-0.068592,0.095138,0.118945,-0.018887,-0.034586,0.145991,0.056584,-0.069968,-0.059465,-0.028000,0.040568,0.055015,0.041941,-0.135738,-0.055014,-0.024773,0.191617,0.028686,-0.019623,-0.028319,-0.179750,-0.202312,0.041436,0.005691,0.045383,0.108428,-0.100456,0.014020,0.088168,0.119486,-0.004632,0.037936,-0.149784,-0.276733,0.157781,-0.014304,0.005170,-0.033573,0.068337,0.025541,-0.112313,0.127341,-0.040385,0.111515,-0.088285,-0.217239,-0.070947,0.173964,0.175983,-0.139155,-0.010079,-0.051411,-0.008940,0.020455,-0.055424,0.078443,0.129846,-0.262160,0.025638,0.061358,-0.085112,0.018091,0.015639,0.111972,-0.005813,0.102731,-0.000384,-0.095128,0.145672,-0.105056,-0.035071,-0.099367,0.142627,-0.020187,-0.032373,-0.050305,0.105849,0.063216,0.111738,-0.091735,0.078601,0.018549,-0.066283,-0.029940,0.154100,0.033235,0.022208,-0.124306,-0.004143,0.038443,0.076519,-0.171422,-0.097306,0.097216,0.056702,-0.084221,0.053056,-0.045136,-0.018615,0.037014,0.031553,-0.113739,0.106857,0.061717,-0.029649,0.089650,-0.059626,-0.101048,0.034011,-0.010925,0.038138,0.060068,0.114482,0.077940,0.056582,0.055682,-0.145306,0.027903,-0.047165,0.093029,-0.116407,-0.029866,-0.183645,0.121281,0.092777,0.134695,-0.012664,-0.085356,0.020972,-0.083713,-0.088216,0.035226,-0.107575,0.136295,-0.074523,-0.010900,-0.034061,-0.116966,-0.142318,0.094934,-0.094371,-0.050305,0.165112,-0.096972,-0.114155,-0.177306,-0.156782,0.028819,-0.137708,-0.099156,0.104290,-0.015856,-0.014405,0.024128,-0.050938,0.094640,0.037908,-0.072993,-0.143305,0.049447,-0.146757,0.023970,-0.138076,-0.156149,0.087691,0.108182,-0.144563,-0.130593,0.082029,-0.032695,-0.113853,0.154294,-0.120945,-0.062862,-0.038094,0.096387,0.046445,-0.060270,-0.186929,-0.109978,-0.075000,0.052111,0.055076,-0.053782,0.014232,0.021451,-0.128603,0.034091,-0.077894,-0.055639,0.032199,-0.146228,-0.122825,0.065117,-0.063598,-0.129423,0.083998,-0.056977,-0.102403,-0.098677,0.122051,0.078024,0.068472,-0.011739,0.041308,0.074649,-0.075681,0.104575,0.136307,-0.149770,-0.060236,0.007120,-0.004411,0.069632,0.031814,0.023774,-0.094953,0.044825,-0.042505,0.101123,-0.077270,0.078376,-0.008088,0.113037,-0.050277,-0.140025,-0.156887,0.096198,0.009217,-0.051982,0.017038,0.044344,0.101459,-0.003776,0.110533,-0.031423,-0.089865,-0.044529,-0.092232,0.013989,0.028880,-0.050547,0.034639,0.119899,-0.065623,0.103939,-0.032178,-0.104366,0.108796,-0.157349,-0.065621,0.000162,0.084842,-0.101698,0.002054,-0.101676,-0.074595,-0.043347,-0.149971,0.115906,-0.146235,-0.135479,0.023409,0.133065,0.182024,0.006271,0.015523,-0.181729,-0.139685,0.015859,-0.110239,0.072808,-0.089834,-0.099441,0.033927,0.111563,-0.029383,-0.043300,0.052220,-0.068377,-0.128832,0.019610,-0.032257,0.048255,0.102948,0.057748,-0.142931,0.001775,0.116768,0.056662,-0.048374,-0.047578,0.174091,0.134929,0.042713,0.087610,-0.019917,0.053374,-0.029667,-0.139715,0.005276,0.199799,0.206923,0.050691,0.178136,0.070486,0.189903,0.080162,0.069206,0.052004,-0.093791,0.021357,0.164233,-0.080208,-0.055130,0.016241,-0.082065,-0.005593,-0.042767,-0.147639,0.020316,-0.083472,0.022052,0.125090,0.153470,-0.094749,0.110742,0.146249,-0.102476,0.072300,-0.139653,0.072893,-0.141995,-0.111743,0.134852,0.112819,-0.017426,0.070445,0.109450,-0.082637,-0.004522,-0.136795,0.030234,-0.031148,-0.033623,-0.067009,-0.070207,0.003214,0.113673,-0.094987,-0.046262,-0.029687,-0.162911,0.117174,-0.100553,-0.035122,-0.108519,0.060238,-0.022949,-0.102225,-0.064455,-0.009501,0.066560,-0.116451,0.149029,0.087876,0.053493,0.125247,-0.004216,0.103147,0.016671,-0.119791,-0.065463,-0.071267,-0.047220,-0.203709,-0.043430,-0.132329,-0.057812,0.304999,0.100933,0.181350,-0.173550,-0.120562,0.016315,0.195267,-0.021065,-0.131320,-0.164652,0.067804,0.134505,-0.092914,0.056456,0.024944,-0.299631,-0.200671,-0.021142,0.275086,0.043629,-0.184697,0.014475,-0.051134,-0.011364,0.011829,-0.102317,-0.036376,-0.107099,-0.131602,0.081611,0.069138,0.005192,-0.089052,-0.074769,0.028503,-0.080521,0.053539,0.044610,0.084961,-0.035266,0.037050,-0.044406,0.047082,-0.032632,0.063591,-0.055933,0.062725,0.228378,-0.125327,-0.054353,0.053526,0.030327,-0.080723,0.038183,0.009111,0.084536,-0.003985,0.032595,0.013262,0.016417,0.077010,-0.119816,-0.042866,0.072400,0.093896,-0.061944,0.016067,-0.025504,-0.013705,-0.049900,0.048929,0.042089,0.068079,0.065627,-0.079653,-0.068641,-0.040852,0.102309,0.059591,0.041458,-0.076277,-0.024795,0.033806,0.129524,-0.048880,0.043012,-0.111465,-0.172463,-0.071915,-0.082126,-0.082552,0.022932,-0.023237,0.091927,-0.024956,-0.036123,0.047967,-0.021826,0.009824,-0.033716,-0.081701,0.076059,0.014760,0.024270,0.122139,-0.017829,0.126309,0.041433,0.055369,0.022718,-0.084585,-0.141768,0.117890,-0.002205,0.073539,-0.032278,0.003657,0.076925,-0.084006,0.155422,-0.127481,0.138981,0.091966,-0.029212,0.113131,0.136089,0.057112,0.125695,0.154110,-0.049079,-0.013672,0.100279,0.045547,-0.050779,-0.135515,-0.068778,-0.008760,-0.052041,-0.039011,0.058622,0.122988,0.053874,0.016421,0.082363,-0.088002,0.038414,0.093821,0.089878,0.009352,0.019819,-0.040274,0.080095,-0.095311,0.094555,0.153104,-0.008968,0.076744,0.006121,0.043677,0.029569,0.145520,0.282913,0.174547,0.049040,0.025834,0.136257,-0.058027,-0.103750,-0.041639,-0.086652,-0.063027,0.028460,0.094781,-0.032973,-0.064496,0.029569,0.113355,-0.053076,-0.151824,0.100275,-0.120593,0.029671,0.073304,0.138612,0.147354,0.038728,-0.187318,-0.083227,0.033824,0.177657,0.130558,0.067691,-0.122019,-0.109304,0.087649,-0.057387,-0.050038,-0.111525,0.069118,-0.066900,-0.019331,0.077923,0.008533,0.078858,0.008168,-0.111587,-0.032704,-0.101131,0.065249,-0.038752,0.046789,-0.200530,0.213809,-0.046779,-0.045333,-0.059905,-0.025487,-0.074502,-0.130695,-0.019005,-0.173741,0.095976,-0.099564,-0.031248,0.027826,0.075039,-0.111391,0.097356,-0.096847,-0.123668,-0.042408,0.000589,-0.070189,-0.095175,0.102199,-0.115279,0.001779,-0.004508,-0.059897,0.032448,-0.059428,-0.022867,0.011335,-0.051168,-0.101437,0.126060,0.029444,0.067596,-0.097707,-0.017811,-0.111271,-0.101647,-0.013109,0.086357,-0.058323,-0.106435,-0.028487,0.137007,0.165125,-0.102287,0.111115,0.056287,0.000720,0.027523,-0.000670,-0.084710,-0.012812,0.008211,0.002665,0.093428,-0.015075,0.144753,0.127684,0.158347,0.041535,-0.044940,-0.037087,-0.000223,0.092914,-0.116775,-0.074026,-0.062261,-0.105766,-0.024929,0.144799,0.057517,0.125473,-0.082806,0.147723,-0.024271,0.160620,0.124919,-0.092142,0.030340,0.158232,0.051510,-0.089176,-0.120312,0.010005,-0.036436,-0.008321,-0.091161,0.041278,0.114992,0.043871,0.037128,0.080634,-0.044202,0.136965,-0.077297,0.152440,0.076814,-0.147407,0.057175,0.125691,0.007992,0.009778,-0.051271,0.023219,-0.076400,-0.011984,0.044737,-0.069388,0.055730,0.040142,0.003243,-0.036423,0.049632,-0.044614,0.176574,0.074809,0.071432,0.023808,0.086255,-0.078571,-0.065051,0.086624,-0.100830,-0.020439,-0.020433,0.038803,-0.058302,0.031371,-0.054940,0.036953,0.014280,-0.065901,0.103915,0.157181,-0.101416,0.061770,-0.121847,-0.064903,0.004871,-0.045946,0.029597,-0.038461,0.064336,-0.091472,0.090759,-0.094252,-0.074741,-0.132513,0.012059,-0.050741,-0.149492,0.066065,-0.089660,-0.118152,-0.114371,-0.166188,0.046281,-0.161674,-0.037692,-0.101654,0.109537,-0.072496,-0.056734,-0.009074,0.141920,-0.029359,0.040880,-0.236511,-0.207221,-0.079048,-0.108115,0.138082,0.078153,-0.078018,-0.082028,0.050982,-0.070459,-0.040863,0.106982,-0.010533,-0.075399,-0.153986,0.029477,0.106936,0.029110,0.040987,0.096617,-0.047669,-0.049582,-0.001100,0.002249,-0.047847,-0.022630,-0.107758,0.166833,-0.036943,0.080802,-0.082029,0.065441,-0.020809,0.027752,0.097582,-0.140989,-0.046715,0.025890,-0.211065,0.082773,0.166803,-0.082760,0.120532,-0.111031,0.097981,-0.109480,0.053833,-0.036932,0.094316,-0.018825,0.150963,0.201907,0.116665,0.175868,-0.034555,0.107044,-0.169326,-0.013403,0.080896,0.071051,0.145025,0.255168,0.166114,0.035873,0.062561,-0.079466,-0.039864,0.161252,-0.133103,0.125488,-0.110672,-0.003485,-0.119603,-0.084727,0.127860,0.110070,0.115026,0.036571,-0.090468,-0.072153,0.158206,0.155370,0.102785,0.148887,0.078351,0.045468,0.077935,0.137709,-0.069961,-0.159154,-0.028061,-0.149371,-0.100093,0.008731,0.143121,-0.050932,0.010491,0.077468,0.141214,0.130679,-0.096540,-0.053545,0.080022,-0.085414,-0.092186,0.056567,-0.040635,0.093077,0.035974,0.040390,-0.152169,-0.005050,-0.066087,-0.068962,-0.097728,-0.032151,0.045258,-0.057380,-0.048219,0.008338,-0.053415,0.046620,0.105974,0.039174,-0.126541,0.109651,-0.080445,0.150339,0.027581,-0.059039,0.031154,0.030843,-0.112882,-0.083447,-0.032579,-0.136694,0.071824,0.164897,-0.066193,0.040524,0.132521,-0.002907,0.222159,0.059630,0.118381,-0.035064,0.071632,-0.000867,0.072047,0.001963,0.110765,-0.072504,-0.134543,0.063360,-0.085530,-0.046027,-0.106375,0.005189,-0.044472,0.009663,0.101825,0.151735,-0.134936,-0.005632,-0.090012,0.166579,0.053443,-0.012267,-0.042244,0.082887,-0.100116,-0.050790,-0.101714,-0.078392,-0.047162,0.020308,0.099310,-0.046973,-0.062151,0.166341,0.264818,0.023888,-0.058226,0.024476,-0.012364,0.110511,-0.111987,-0.015049,0.142159,-0.060397,-0.181772,-0.178692,-0.269084,-0.217377,-0.085845,0.029762,0.175613,-0.124100,0.071843,0.143285,0.007976,0.138735,0.039901,-0.008817,-0.188249,-0.054439,-0.088457,0.038573,0.073919,0.141700,0.052977,0.125956,0.009746,0.139834,-0.096291,-0.006344,0.019442,0.048373,-0.021614,0.166844,-0.007154,-0.066937,-0.143747,-0.039592,0.108380,0.091662,0.119492,-0.124761,0.054208,0.130465,-0.027164,0.150685,-0.040509,-0.016338,-0.121121,0.032769,-0.056266,0.018327,-0.056017,-0.045660,0.009010,0.059216,0.007126,-0.042983,0.000243,-0.003945,-0.080316,0.021418,0.090444,-0.031793,0.002076,-0.005230,0.042381,0.019601,0.158290,-0.069971,0.106465,0.118870,0.088701,0.183259,-0.113074,0.014412,-0.063554,0.011778,-0.149150,-0.092976,0.089309,-0.045235,0.024032,0.079434,0.088959,0.213190,0.120086,0.078319,0.079718,0.039535,-0.048201,-0.178762,0.149034,0.096079,0.053554,0.135220,-0.150201,-0.090816,-0.017341,-0.059779,0.032727,-0.055850,-0.035342,-0.011503,-0.003816,-0.066794,-0.080994,0.130561,0.073025,-0.112202,-0.024013,-0.089238,0.027214,0.189818,0.011402,0.153888,0.041464,0.195158,0.064221,0.030698,-0.034399,-0.018972,-0.125599,-0.057407,-0.012031,0.108803,0.095863,-0.006146,0.045482,0.003802,-0.053197,0.010903,0.077163,0.000499,-0.062952,0.172019,0.118424,0.075330,0.057787,-0.107062,-0.093227,-0.153472,-0.132058,-0.273767,0.066346,-0.085462,-0.099064,0.053175,-0.174113,-0.046529,-0.095095,0.088195,-0.164887,-0.021856,-0.063494,-0.101190,-0.055070,0.000106,0.063803,-0.056101,-0.013437,-0.155737,-0.230153,0.013522,-0.203037,-0.106376,0.054379,-0.084887,-0.017688,-0.068240,0.045906,0.037595,0.263310,0.063879,0.123756,0.127442,0.087215,0.137995,0.068921,0.098223,0.038269,0.064671,0.121139,-0.076064,0.171540,0.170146,0.210583,0.117204,0.210115,0.122153,0.126947,0.008275,0.119077,-0.004871,0.038229,0.176461,0.109130,-0.039695,0.124794,-0.157909,-0.078507,-0.013667,-0.017493,-0.151847,-0.138772,-0.051428,-0.085417,0.144735,-0.004545,0.029407,0.127932,0.075846,-0.051650,-0.075563,-0.192152,-0.000248,-0.120153,0.049707,-0.011943,0.097196,-0.134781,-0.050216,-0.068921,-0.066192,-0.100441,-0.095562,0.015639,0.051499,0.037330,-0.119758,0.122549,-0.065663,0.167411,0.091684,0.109428,-0.091542,0.011774,-0.090941,-0.082677,-0.132657,-0.090032,-0.149471,-0.044998,-0.106283,-0.042886,-0.034122,-0.005399,-0.039267,-0.062483,0.076116,0.043828,0.060896,-0.156229,-0.107859,-0.046004,0.048115,-0.050975,0.032525,-0.076655,-0.047238,0.082127,0.131685,0.111687,0.075097,-0.042341,0.014015,0.056051,0.029472,0.061177,-0.012335,-0.027629,0.034646,-0.009466,0.009999,0.039475,0.076544,-0.007046,0.057746,-0.167966,-0.112881,-0.243998,-0.207792,0.054388,0.132853,0.037520,0.017851,0.057899,-0.010781,-0.067700,0.014795,-0.004920,-0.110117,-0.128390,0.093847,0.053135,0.093788,0.064125,0.184309,0.063392,-0.033198,-0.123002,0.114240,0.147710,-0.018474,-0.056182,0.126251,0.106414,-0.031440,0.116165,0.115144,0.005826,-0.178072,0.041244,-0.031739,0.071503,0.023535,0.121531,0.040155,0.078209,-0.015730,-0.140108,-0.196290,-0.101316,-0.034934,0.089469,0.091909,-0.131993,-0.028791,0.166991,-0.059570,-0.134709,-0.070071,-0.054047,0.013295,-0.061318,0.097717,0.110440,-0.090132,-0.137681,-0.168507,0.063929,0.164503,0.046026,0.006145,-0.017971,0.071581,0.046057,0.122270,0.028368,-0.015797,-0.206253,-0.077883,0.020406,-0.116198,0.120732,-0.044211,-0.090692,0.150838,0.100254,-0.147871,0.077545,-0.199108,-0.019825,-0.083084,-0.233174,-0.074045,0.140508,-0.003329,0.063022,0.005478,0.138058,0.035087,-0.052560,0.005253,-0.235795,-0.161037,0.003026,-0.075043,0.102871,-0.025134,-0.065862,-0.044060,-0.048401,-0.015001,-0.081564,0.034699,-0.128602,-0.118656,-0.074678,0.046590,-0.011570,-0.072278,0.021761,-0.041447,0.137697,0.059653,-0.021440,0.061689,0.079779,-0.094162,-0.106331,0.012202,0.126219,-0.103243,0.045226,0.076985,-0.146147,-0.079630,-0.065731,0.089130,0.092410,-0.087783,-0.145276,-0.162955,0.106529,0.094572,-0.071974,0.127091,0.091253,-0.024742,0.158544,0.189151,0.153944,0.010777,-0.091111,-0.023688,-0.067925,-0.059041,0.054818,-0.047817,0.091017,-0.063614,0.042505,0.137073,0.170264,0.133859,0.218499,0.271179,0.078463,-0.032789,-0.147969,0.101891,-0.103240,-0.025035,0.138833,-0.042300,0.112264,0.104729,0.130483,0.143567,-0.104541,0.082236,-0.145103,-0.034845,-0.167590,-0.009630,0.023445,0.152512,0.087899,0.101181,-0.144311,-0.186996,-0.087099,-0.081318,0.190610,-0.001176,-0.024532,0.054112,-0.036652,-0.066998,0.056988,0.073073,-0.153570,-0.079954,0.109725,0.185218,0.218342,-0.045232,0.107969,-0.176467,-0.082178,-0.117408,-0.111785,-0.081424,-0.184601,0.052466,-0.007389,0.010352,0.064561,0.138884,-0.000908,0.071779,-0.002327,-0.065374,-0.052082,0.161156,0.100721,-0.141783,0.003846,-0.200500,-0.129645,-0.010821,0.092350,0.115177,0.009845,0.073863,0.047121,0.187047,0.042187,0.065874,-0.017409,0.114533,-0.019986,-0.204412,-0.071823,-0.090178,-0.123952,0.068018,0.019998,0.015878,-0.111256,-0.044074,0.064995,0.035449,-0.096786,-0.032716,-0.032873,-0.130353,-0.074047,-0.095457,-0.008629,0.065019,-0.067252,-0.163500,0.114182,0.172690,0.079501,0.152240,0.071819,0.062585,-0.047783,-0.057318,-0.073730,-0.114123,0.030722,-0.155258,0.085201,0.020235,0.064227,0.042669,-0.020449,0.007332,0.051340,-0.048789,-0.032342,-0.013188,-0.081007,0.065057,-0.069179,-0.133351,-0.023321,0.008805,-0.092116,-0.108223,-0.001878,-0.105078,-0.072248,-0.133129,0.121624,0.033148,-0.026495,0.064249,-0.095562,-0.136432,-0.085437,0.008241,0.094495,0.031164,-0.143646,0.080468,-0.122709,-0.015835,-0.141570,-0.108033,-0.073428,0.007800,0.011133,-0.065233,0.127413,-0.117116,0.010076,-0.097124,-0.122910,-0.108133,0.021475,-0.005107,-0.118085,0.037196,-0.188701,0.082657,-0.000424,-0.020561,0.052652,-0.016448,0.137773,0.118515,-0.122238,-0.198453,-0.161186,-0.011259,0.036708,0.054410,0.111245,-0.108414,0.070713,-0.061894,0.167002,0.241055,0.236471,0.294096,0.324008,0.258495,0.013518,0.119446,-0.012534,-0.151318,0.034426,-0.047907,0.047942,-0.010426,0.031908,0.124149,0.212475,-0.122886,-0.258402,-0.159513,-0.128601,-0.029232,-0.150026,-0.017308,-0.045234,0.010902,0.064484,-0.105495,0.026388,0.110152,0.088700,-0.058814,-0.045567,-0.097860,-0.230220,-0.016403,-0.157591,0.062061,-0.088274,-0.090152,-0.052333,-0.012843,-0.001374,0.005643,-0.058385,0.125999,-0.014202,-0.119972,-0.032607,-0.064128,-0.166249,-0.060786,0.144290,-0.022422,0.012151,-0.025006,-0.172788,-0.110080,0.070511,-0.075124,-0.069214,0.072062,0.165229,-0.043681,0.004239,-0.077603,0.141932,-0.053071,-0.049410,0.034219,-0.041634,0.009909,0.017795,-0.066407,-0.084225,0.055931,-0.026124,0.002366,-0.041868,-0.023779,-0.136305,0.055729,-0.127495,0.055919,0.082708,0.073635,-0.022416,0.070492,-0.023167,-0.136334,-0.015075,0.066624,-0.106465,-0.026537,-0.056352,-0.041132,-0.092219,-0.092148,0.038183,-0.006968,-0.057117,0.074611,0.050395,0.132078,0.077993,0.070720,0.134687,0.008054,-0.019662,-0.095481,0.115420,0.123381,-0.094138,0.017095,-0.128303,-0.048691,0.018975,-0.030492,0.040664,0.076761,0.109734,0.069544,-0.114750,-0.027717,0.138992,-0.005254,-0.123220,0.111315,0.072089,0.138687,0.141491,-0.041310,-0.156404,0.057055,0.025446,0.012578,0.121954,0.072689,0.030687,0.026946,0.066884,0.076372,-0.088621,0.109733,-0.210283,-0.285050,-0.197445,-0.054494,0.138359,0.107207,0.181862,-0.066470,-0.152077,-0.129362,0.025808,-0.089599,0.030878,-0.209578,-0.136522,0.007887,-0.048349,-0.055759,-0.015150,0.031451,-0.068058,-0.048203,0.050442,0.132218,-0.015915,-0.236505,-0.039821,-0.215028,0.184170,0.089244,-0.061147,-0.225100,-0.070937,-0.028833,0.119460,-0.048852,-0.059147,-0.136192,-0.230934,-0.096305,0.060560,0.202259,0.010103,-0.163146,-0.060313,-0.258435,-0.202548,0.074868,-0.050077,-0.150190,-0.015095,-0.107425,-0.062697,0.165038,0.130322,-0.090121,-0.026016,-0.117663,0.027166,0.005530,-0.114945,-0.117273,-0.111072,-0.058231,-0.042458,0.087719,0.043705,-0.040949,-0.042474,-0.033544,0.090335,-0.103039,-0.055490,0.090898,-0.115458,-0.066201,0.079726,-0.133874,0.119233,-0.021765,-0.044393,-0.018780,0.043685,0.165123,0.065745,-0.155461,-0.175423,0.013704,0.091951,-0.048323,-0.003997,0.039707,0.069784,-0.039838,-0.027294,0.100674,-0.035772,-0.012725,-0.091370,0.131448,-0.107826,0.082287,0.004661,-0.090141,0.103925,0.041880,-0.065446,-0.010045,0.095387,-0.053843,0.018131,0.131068,0.022806,0.143662,0.045070,-0.102483,-0.089901,-0.017698,0.081817,-0.026405,-0.090464,-0.033609,-0.075407,-0.014639,-0.107994,-0.158627,-0.075874,0.053314,-0.113995,-0.074854,0.006980,0.022963,-0.215688,-0.174601,0.077331,0.139317,-0.007774,-0.151109,-0.117503,-0.096518,-0.031643,0.029615,0.002438,-0.021848,0.045677,-0.136801,-0.037678,-0.027782,-0.036962,-0.102978,0.019972,0.101129,-0.124064,0.100325,0.067881,0.115370,0.018560,-0.022381,-0.017767,0.143602,-0.083672,-0.102476,-0.089703,-0.001772,-0.034696,-0.153195,-0.133938,0.094236,0.048488,0.011671,0.012354,0.105894,0.039198,-0.047136,0.000496,0.098980,0.044150,-0.169253,0.151771,-0.054849,0.056676,-0.072159,0.066419,0.029910,0.026465,-0.071015,0.038717,0.072478,0.030989,0.080182,-0.057380,-0.047265,0.099734,-0.082663,-0.007990,0.075120,0.046263,-0.005378,-0.156825,0.131229,0.065895,0.058018,-0.010324,-0.054692,0.101212,-0.024962,-0.091233,0.029242,0.128944,0.091212,-0.224570,0.057447,-0.050706,0.040381,0.040549,-0.025030,0.033239,-0.047808,-0.110811,0.044764,0.037801,0.032378,-0.321469,-0.150078,-0.053136,-0.042479,-0.070818,-0.023449,-0.039047,0.000005,-0.159124,0.147271,-0.057182,0.029538,-0.072818,-0.262253,0.093496,-0.082772,-0.078494,-0.169288,0.072214,0.121140,-0.064615,-0.074127,0.160247,-0.036659,0.013964,-0.037047,-0.110801,0.189716,-0.113522,-0.280905,-0.073398,-0.001532,0.023501,0.096707,-0.095908,-0.135835,0.020190,0.038924,0.043555,0.151864,0.111662,-0.236117,-0.051485,0.105324,0.098575,-0.036455,0.017140,0.082097,0.021569,-0.016472,0.053322,0.189096,0.192440,-0.070959,-0.087010,0.026425,0.193735,0.170604,-0.032143,0.077289,-0.019889,-0.088395,-0.061855,0.030468,0.016035,0.005549,-0.063986,-0.091461,-0.004829,0.057621,0.177484,0.029154,-0.035768,-0.009230,0.148017,0.167975,0.143490,0.065777,-0.078068,-0.167359,-0.056655,-0.000528,-0.024585,-0.111837,0.035456,-0.112944,-0.039100,-0.029479,-0.032141,0.060441,0.119586,-0.139800,-0.053212,-0.149849,0.076019,-0.038597,-0.067028,-0.100131,-0.113955,-0.138464,0.095507,-0.132457,-0.045112,0.157134,0.033924,-0.015035,0.036291,0.132023,0.110345,0.151434,-0.029046,-0.086422,-0.039034,0.118881,-0.108112,0.098728,0.110459,-0.042522,-0.004316,-0.058306,0.035364,0.024607,0.052122,0.044422,0.087058,0.129657,-0.005075,0.158989,0.018871,0.012981,-0.079584,-0.154293,-0.153564,-0.133332,-0.100614,-0.050663,0.144257,-0.029884,0.041783,-0.034909,-0.116898,-0.257306,-0.275549,-0.113813,-0.139620,-0.002560,-0.106648,0.040766,0.028224,0.102737,0.099244,-0.060131,-0.107305,-0.032774,-0.204095,-0.074789,0.151671,0.104341,-0.009254,0.016534,-0.066305,-0.053025,0.142733,0.117748,0.035380,-0.014959,-0.039549,0.112294,0.218608,0.189640,0.042279,0.092440,-0.022781,-0.035583,-0.031604,-0.044234,-0.106272,-0.068818,-0.009192,0.130841,0.055237,0.070724,-0.009405,0.002172,0.166896,-0.021509,-0.002221,0.095855,0.153186,0.026527,-0.091273,0.009335,0.039220,0.198723,-0.151619,0.053937,0.048929,0.079193,0.078611,-0.012013,0.073520,0.107494,-0.025058,0.076154,-0.151743,-0.058845,0.050821,-0.035070,-0.016157,-0.014769,0.065771,0.072560,0.035099,0.092863,0.061187,-0.055842,0.045218,-0.134058,-0.131163,0.084469,-0.082627,0.131210,0.190343,-0.058241,0.121771,0.099914,-0.002772,-0.014549,0.014934,0.076084,-0.046499,-0.090783,-0.054430,0.089319,-0.000467,-0.035365,0.008118,0.086809,0.038818,-0.072607,0.093155,-0.059410,-0.154131,-0.074411,-0.142966,-0.056616,0.041851,-0.044530,-0.024850,0.030319,-0.098506,0.025701,0.122591,0.138394,-0.073383,-0.057111,-0.009965,0.135023,0.132900,-0.034024,-0.156266,-0.056044,-0.026842,0.008103,0.044302,-0.096419,0.004672,0.122202,0.063414,0.121208,-0.053715,0.121587,-0.018946,-0.054025,0.012944,0.153133,0.122157,0.035175,0.136493,-0.019271,0.065319,-0.140502,0.117909,-0.064685,0.029141,0.033894,0.137731,0.104794,-0.062044,0.094476,-0.142824,-0.040379,0.130357,-0.133033,-0.011285,0.034861,0.052795,-0.129595,-0.013783,0.076746,0.187356,-0.057291,-0.112211,-0.247894,-0.079807,0.044608,0.027215,-0.130146,0.001433,-0.013691,-0.052773,-0.008177,-0.062885,-0.199811,-0.152087,-0.156649,0.008717,-0.103409,0.088361,-0.078151,0.009097,-0.105705,-0.073724,-0.011894,0.086185,0.121390,-0.036620,-0.035310,0.102241,0.108848,-0.065713,-0.031533,-0.048346,-0.158494,-0.009477,0.090680,0.123515,-0.068907,0.045418,0.043885,0.124980,0.136554,0.020825,0.153028,-0.027170,0.187751,-0.027182,-0.084474,0.235077,0.053322,0.306116,0.078816,-0.062994,0.128701,0.148816,0.018969,0.076974,0.112120,0.010798,-0.106028,0.085998,-0.052064,0.114736,0.104490,-0.019192,0.077460,0.081366,0.046632,0.103331,0.053962,0.154640,0.024749,-0.102576,-0.120703,-0.029360,0.037809,-0.160011,-0.069560,-0.009100,-0.058256,-0.193988,0.070144,-0.023542,0.010769,0.129692,-0.139787,-0.003305,-0.003338,0.004869,-0.059618,-0.049961,0.019256,-0.106871,-0.087043,-0.133558,-0.034790,0.011542,0.087243,0.056089,0.082288,-0.110683,0.065665,0.049343,0.074531,-0.099999,-0.042123,-0.184420,-0.075601,0.044237,-0.077921,-0.133216,0.052262,-0.121331,-0.140958,-0.096076,0.073089,-0.052452,0.012448,-0.008886,-0.166638,-0.000465,0.122109,0.033427,0.128511,0.061215,0.138824,0.001581,-0.089983,-0.130928,-0.027084,-0.112054,0.019741,-0.148006,0.095901,0.117847,-0.098934,0.125688,0.117085,-0.054842,-0.058705,0.161121,-0.123985,0.145037,0.111976,0.058925,-0.088313,-0.055855,-0.172468,0.064645,-0.075602,-0.094746,-0.112715,0.124818,0.143648,0.104164,-0.091471,0.093387,-0.037813,-0.060707,0.045874,-0.079670,-0.136859,-0.171178,-0.027592,-0.029019,0.098788,-0.087905,-0.006436,-0.102918,-0.110748,-0.074183,0.019824,-0.083024,0.106377,0.033536,-0.029906,-0.055657,0.049252,-0.068307,-0.057036,-0.009368,-0.054319,-0.239918,-0.091007,-0.011388,0.007657,0.006158,-0.090735,-0.083619,-0.030309,0.125380,0.105232,-0.130755,0.000454,0.020424,-0.147785,0.034151,-0.116364,0.039868,-0.154879,0.005769,0.068089,0.133115,-0.055835,-0.036621,0.110275,0.110175,0.086133,0.101535,0.106166,-0.188850,0.046800,-0.091277,0.000266,0.049658,-0.066988,-0.005523,0.137143,0.107817,0.034600,0.055052,0.077298,0.002638,-0.121423,-0.135086,-0.199676,0.085798,0.073411,-0.122656,0.105460,0.033096,0.110637,-0.032682,0.041855,0.156342,0.002066,0.057627,0.178056,0.051139,0.155915,0.167032,0.137210,0.034086,-0.059032,-0.021181,-0.018856,0.147198,0.004661,0.008938,0.040574,0.182080,0.090891,0.250241,0.124813,-0.106960,0.003306,0.104451,0.050962,0.083748,-0.024920,-0.091076,-0.158771,0.022222,-0.004436,-0.095032,-0.137790,0.009414,-0.163925,0.162752,0.097808,0.090976,0.022194,0.105704,-0.110137,-0.309864,-0.190456,0.062646,-0.045964,0.150355,0.147112,0.077734,-0.107196,-0.041257,-0.034527,0.098930,0.025159,-0.019784,-0.110240,-0.146265,-0.023596,0.109652,-0.146166,0.060215,0.141763,0.005073,-0.152848,-0.056204,0.158505,0.153787,0.136575,-0.029518,-0.098115,0.108229,0.120048,0.081302,0.109402,0.003490,-0.118566,0.076971,-0.065454,0.016698,0.105491,0.072055,0.102240,0.026509,0.040503,0.062929,0.027637,0.112337,-0.056505,-0.111050,-0.017983,0.110994,0.031505,-0.017042,0.007277,0.054767,0.062984,0.005962,-0.060093,-0.012928,-0.006481,0.047094,-0.016261,0.058432,0.016773,-0.145425,-0.043045,-0.119180,-0.090372,-0.003256,-0.051352,-0.027000,-0.121311,-0.110824,0.031059,0.023635,-0.187760,0.002848,-0.144790,-0.077966,0.175808,-0.068128,0.028214,0.044743,-0.027797,0.009221,-0.085308,-0.128251,-0.152470,0.013955,-0.010694,0.081446,0.004187,-0.190649,-0.091809,-0.081426,-0.038820,-0.021599,0.085644,0.045995,0.124963,0.108194,-0.012916,-0.016689,0.063995,-0.107614,-0.197605,0.037347,-0.021938,0.016793,-0.020622,-0.030473,-0.018830,0.165197,-0.092614,0.010258,0.081643,0.157338,0.097119,0.286369,-0.033885,0.131467,-0.066136,0.075454,-0.051541,-0.073044,0.062919,0.025007,0.189840,0.179411,0.002520,0.151771,0.214617,0.047306,0.056309,0.023018,-0.176284,0.143477,0.168325,-0.050451,-0.035451,0.181413,0.048786,-0.093611,0.071854,0.037201,0.060625,-0.006771,-0.000643,0.040887,0.025936,0.063002,-0.039927,-0.039810,0.062221,0.029641,-0.067385,-0.029383,-0.004523,0.003881,0.099054,0.055047,0.035498,-0.114039,-0.036401,-0.035463,-0.102140,0.040496,-0.150650,0.013003,0.007964,-0.165037,-0.017484,-0.173728,0.003305,-0.074539,0.010595,0.142082,0.009705,0.079702,0.059013,0.030333,-0.100814,-0.091786,0.019550,-0.030395,-0.121027,0.043132,-0.063431,0.062584,0.078811,-0.042707,-0.103467,-0.138989,-0.023506,-0.014063,-0.085018,0.050937,-0.121407,0.123740,-0.003953,0.143109,-0.062679,-0.128632,0.048297,-0.043227,-0.000568,0.201635,-0.070013,0.170770,0.153444,0.077744,-0.131774,-0.133728,-0.130287,-0.126735,-0.136337,0.112351,-0.143224,-0.109068,0.068582,-0.032849,0.114328,0.018644,0.069474,-0.003292,-0.032827,-0.060138,-0.132391,0.079128,-0.115070,0.024908,0.072207,0.086775,0.137826,0.149043,0.084945,-0.058836,0.034030,0.044457,-0.002839,-0.026137,-0.093138,-0.104079,-0.002641,-0.126438,0.005867,-0.039182,0.103498,-0.021061,0.042780,-0.009699,-0.027777,-0.060926,0.064830,0.059549,-0.076716,-0.075281,-0.085482,-0.160699,-0.320671,-0.406943,-0.304800,0.036986,0.021370,-0.146076,-0.030788,0.045680,0.107601,-0.003209,-0.201395,-0.133865,-0.349754,-0.366285,-0.119964,0.002424,0.212074,0.088579,0.120343,0.001183,-0.034851,-0.034098,0.050742,-0.126655,-0.081776,-0.094524,0.083655,-0.030964,0.102516,0.066863,-0.025940,0.019138,0.040239,-0.036400,-0.091642,0.154505,0.075775,-0.045938,0.062727,0.136329,-0.065067,0.041419,-0.018795,-0.055385,0.092954,0.060762,0.106132,-0.102457,-0.127553,0.117841,-0.088668,0.094897,0.103878,0.063688,0.088180,-0.035891,0.059327,-0.039250,0.003675,-0.145610,0.055648,-0.057263,0.066584,0.008951,-0.002685,-0.042229,0.150163,0.087891,0.010326,-0.184351,-0.116240,-0.070703,-0.199471,-0.064034,-0.140396,-0.121209,-0.084349,-0.038366,-0.012653,-0.110374,-0.041277,-0.042599,-0.036263,-0.050911,-0.065665,-0.139838,-0.026000,-0.041066,-0.079413,-0.014798,-0.055233,-0.058924,-0.066812,0.073904,-0.081224,-0.161385,-0.103152,-0.175176,0.009244,0.001907,0.147041,-0.004129,-0.139695,0.028903,0.003238,-0.080436,0.134969,0.056945,0.017740,-0.106459,0.105035,0.109198,0.123910,-0.099660,-0.065840,-0.127596,-0.134629,-0.024997,0.076050,0.023726,-0.099064,0.138274,0.026740,0.137724,0.100054,0.087137,0.034242,-0.081877,-0.052392,-0.073367,-0.016648,-0.055211,-0.097649,-0.120081,-0.173471,-0.010966,-0.083053,-0.016069,0.108308,-0.064403,0.082071,-0.214535,-0.053765,-0.064996,0.042108,-0.049912,-0.027361,0.094533,0.126786,0.142546,0.281639,-0.040060,-0.168204,-0.158105,0.017665,-0.035186,-0.070795,0.013121,-0.003257,-0.009108,0.268083,0.237104,0.221682,0.191442,0.190448,-0.008048,-0.055924,-0.128998,0.164040,-0.027536,0.055179,-0.082705,-0.185945,-0.197951,-0.404630,-0.356573,-0.061737,0.089699,-0.039555,-0.073347,0.085356,0.014098,0.092501,0.039617,0.024261,0.112042,-0.105608,-0.016523,-0.172540,-0.186525,-0.083194,-0.133962,0.003403,0.025365,0.010729,-0.050053,0.127742,-0.005002,0.010688,0.093962,-0.003629,-0.019049,-0.206009,0.061775,0.039359,-0.074805,0.029143,-0.103784,0.052565,0.017624,0.008195,-0.069041,-0.070129,-0.059550,-0.061957,-0.003340,-0.111818,0.035696,-0.001778,0.128566,-0.111086,0.123072,-0.030905,-0.019361,-0.000209,-0.003984,0.042273,-0.090322,0.008509,0.012453,-0.044451,0.027198,-0.069027,-0.007384,-0.041244,0.064611,-0.069547,-0.058401,0.096051,0.016648,-0.081210,0.066519,0.020623,0.032228,0.059160,-0.125296,0.024961,0.021063,0.017563,-0.037686,0.050062,0.025737,0.060974,0.094541,-0.099347,0.014486,-0.067545,0.035188,-0.136288,0.012992,-0.168913,0.063132,0.008013,0.048857,0.006443,0.191241,0.168992,0.070368,-0.124265,-0.156311,0.155956,-0.033652,0.133435,-0.076932,-0.039460,-0.170075,0.007247,0.089560,-0.058102,-0.156418,0.115317,-0.092878,0.065197,-0.157722,0.137071,0.098633,0.144486,-0.138905,-0.006374,-0.134804,0.143615,0.034160,0.055385,0.062445,-0.045884,0.033076,0.018167,-0.002525,-0.066863,-0.029898,-0.085068,-0.122214,0.065417,-0.108271,-0.042838,0.169593,0.019507,0.074368,0.108696,-0.085894,-0.044826,-0.147828,-0.036136,-0.079031,-0.041328,-0.132427,-0.052546,0.082868,0.007862,0.211167,-0.067886,0.013863,-0.094498,0.095490,-0.068340,0.000976,-0.017960,-0.139499,-0.159795,0.041776,-0.076502,-0.141736,-0.004465,0.006645,0.001997,0.115228,-0.148869,0.002683,0.038297,-0.082419,-0.039560,-0.027942,-0.151903,0.063542,-0.004172,-0.016921,-0.104603,-0.148356,-0.031687,0.003575,-0.049556,-0.041967,0.071498,0.092373,0.064610,0.022547,0.128831,0.213590,0.034146,-0.116098,0.062189,-0.150057,0.081798,-0.093745,0.023787,-0.062899,0.037496,0.039098,0.138926,0.152634,0.124652,-0.084973,-0.047914,-0.076010,-0.036290,0.092981,-0.087978,-0.018601,0.069237,0.089728,-0.076947,-0.334542,-0.267536,-0.127876,0.098065,0.061536,-0.142167,0.014181,0.038435,-0.060555,-0.001907,0.038418,0.132064,0.035490,-0.068601,-0.146519,-0.215276,-0.132183,0.001924,0.113174,-0.047874,0.030470,-0.130232,0.106740,0.019900,-0.004582,-0.108632,0.042385,0.104136,-0.013304,-0.141318,-0.140333,-0.034179,0.091435,-0.130485,-0.032386,-0.109662,0.009645,0.041468,0.221291,0.083959,0.123962,0.030007,-0.075988,0.020667,-0.050642,-0.075152,-0.204279,0.032392,-0.054223,0.131444,0.095021,0.066544,0.128228,0.064824,-0.085945,-0.085851,0.081640,0.096583,0.146396,-0.087810,-0.072993,-0.136362,0.126202,0.037992,-0.082308,-0.074811,-0.148595,0.068254,-0.048952,0.013301,0.141196,-0.001676,0.000909,-0.099470,-0.077563,-0.178718,0.049882,-0.144743,0.004056,-0.015986,-0.148864,0.115289,-0.003918,0.105387,0.147157,-0.152024,0.057083,-0.109689,-0.044876,-0.064036,-0.119350,0.040851,-0.180539,-0.114796,-0.035040,0.020214,0.044699,0.116296,0.009381,-0.036623,-0.099405,-0.087543,-0.188745,-0.030326,-0.068331,-0.044565,0.038263,-0.032268,-0.153450,-0.055787,-0.148374,-0.054020,-0.049560,-0.087642,-0.142728,-0.116336,0.190462,-0.104634,-0.086582,-0.221963,-0.114789,-0.086792,-0.019882,0.063673,0.110091,-0.003969,-0.144625,-0.095750,0.074610,0.179874,-0.103236,-0.200653,0.070324,0.049751,0.066624,0.125945,-0.094187,-0.139365,-0.147923,-0.179141,-0.067699,0.150408,0.085226,-0.200827,-0.085550,0.012348,-0.149974,-0.037977,-0.076296,-0.031394,-0.025099,0.181368,-0.065811,0.124335,0.069229,0.221315,-0.043337,-0.122956,-0.121188,0.048582,0.037519,0.099532,0.001644,0.046212,-0.068599,-0.128391,0.032192,0.065606,0.100895,-0.236108,0.020169,-0.065411,-0.058672,-0.084214,-0.099197,-0.130854,-0.166167,0.026289,-0.110930,0.013667,0.269560,0.103380,-0.028276,-0.037482,0.027105,0.001574,0.074836,-0.030068,0.123037,-0.042079,-0.037687,-0.041779,-0.025628,0.004300,0.105540,-0.029547,-0.094296,-0.023058,-0.165799,-0.066052,-0.094224,0.113219,0.028252,-0.026705,0.000931,0.096222,0.048399,-0.136875,0.206965,0.183119,-0.093397,0.106623,-0.077790,-0.024595,-0.150482,-0.131326,-0.074526,-0.058444,-0.172758,-0.111976,-0.041423,0.086540,-0.083846,-0.095751,0.046444,0.053138,0.096086,0.080951,0.050905,-0.101116,-0.089899,0.066595,0.064683,0.050539,0.034438,0.020047,0.029026,-0.062257,0.106213,0.124418,0.029905,0.018105,-0.046243,0.013185,-0.075405,-0.039431,-0.037911,0.097726,-0.120711,0.052922,0.039652,0.120572,0.122654,0.025452,-0.081906,0.025942,0.038591,0.125207,0.006253,-0.060137,0.088256,-0.028296,0.038122,-0.102579,0.130067,0.123957,-0.091085,0.133830,-0.066975,0.160262,0.017016,0.188386,0.044041,-0.125680,0.025193,-0.163203,-0.133179,-0.086928,0.085353,0.111142,-0.021604,0.036713,-0.083836,-0.155963,0.077238,-0.118342,-0.065885,-0.127810,-0.016965,0.151937,0.142307,0.139693,0.006101,-0.073956,-0.040871,0.131718,-0.050902,-0.007059,-0.017023,-0.016584,0.005221,0.186983,0.139427,0.201071,0.027348,0.093679,0.173252,0.123663,0.150810,0.077053,0.096594,-0.132023,0.003417,0.025096,-0.079411,-0.021279,-0.149177,0.129333,0.045454,0.069544,-0.069253,0.081459,0.111977,0.038744,-0.047841,0.010139,0.067428,0.057292,-0.152371,-0.070418,0.096733,0.100451,0.103733,-0.197593,-0.054215,-0.016056,-0.065910,0.005006,-0.013390,0.086533,-0.143481,-0.047172,0.066793,0.054450,0.083643,0.042695,-0.179043,-0.003028,-0.133693,-0.144075,0.108851,-0.014176,0.067919,0.021552,0.015748,0.067174,0.014077,-0.188509,-0.142176,-0.091031,-0.044229,-0.017391,-0.070641,0.008452,-0.159743,-0.084034,-0.081604,-0.001021,0.127898,-0.054089,0.015602,0.027447,-0.023816,0.158075,0.092140,0.126066,-0.096421,0.012810,-0.056110,-0.033281,0.162375,0.066799,-0.108061,0.101254,-0.128562,0.075465,0.064430,-0.156569,0.118477,-0.005093,0.016278,-0.042392,0.130140,-0.073442,0.068926,0.159796,0.071622,-0.061286,-0.001838,0.016398,-0.131783,0.013590,-0.153421,0.154242,-0.019708,-0.106363,0.091243,-0.046336,-0.065429,0.130425,0.104744,0.150012,0.139117,0.104893,0.035044,-0.005939,0.111994,0.161282,-0.084360,0.033878,0.124266,0.138596,0.089068,0.027983,0.034202,-0.002064,-0.133114,-0.030635,0.062115,-0.012250,0.058184,-0.116363,-0.084801,0.045835,-0.048434,-0.149479,-0.167573,0.003202,-0.142327,-0.097532,0.079267,-0.152652,-0.183677,-0.157535,0.000727,0.015875,-0.055486,-0.063672,-0.132285,-0.114578,-0.059851,0.039177,0.006446,-0.058401,-0.104099,-0.239388,-0.078960,-0.136194,-0.096391,-0.098307,-0.145991,-0.131244,-0.063736,0.102213,0.049544,0.032993,-0.107224,-0.103172,-0.052918,-0.012601,0.056494,-0.127862,0.016446,0.010307,-0.033659,0.035650,0.039451,0.202959,0.074258,0.048186,0.170042,0.337233,0.004357,0.123816,-0.011894,0.120741,-0.099084,0.062520,0.068077,-0.010192,0.117862,0.081207,-0.027840,0.050754,0.127668,0.162487,0.050881,0.041357,-0.061546,-0.032835,0.109221,0.052236,-0.009572,0.054685,-0.032618,0.086697,0.098553,0.006773,0.039578,0.144056,0.021287,0.053501,0.011985,-0.093548,-0.136607,-0.060800,0.134357,0.135401,-0.039117,-0.000701,0.090554,0.073067,0.101025,0.085520,0.055248,0.107443,-0.067864,-0.149711,-0.140015,-0.129675,0.040463,-0.014935,0.046311,-0.021941,-0.092098,-0.048211,-0.007603,-0.097253,-0.021918,-0.154356,-0.152841,-0.139856,-0.191162,-0.024087,-0.152841,-0.047957,-0.062590,-0.064466,-0.054700,-0.079599,0.000542,-0.023838,-0.033270,0.073096,0.103843,-0.066284,0.005133,-0.104014,-0.057618,-0.106553,0.001611,0.060026,0.016002,0.156870,-0.065747,-0.000577,0.141290,-0.073801,0.106179,-0.105548,-0.104790,0.125737,0.025581,0.107948,-0.047059,0.138942,0.141152,0.072183,0.022118,-0.070143,0.086426,-0.092351,-0.145727,0.009397,-0.022481,0.106630,-0.052640,0.082518,0.064196,-0.053038,0.014674,-0.160064,0.111252,0.016475,0.025028,-0.012183,-0.000620,0.162573,0.148301,0.101655,-0.021040,-0.019594,-0.036488,0.085757,0.030623,0.022962,0.001620,-0.064790,-0.024996,0.013550,-0.208767,0.077545,0.048325,-0.004228,-0.048063,0.085325,0.127831,0.139351,-0.150149,-0.023325,-0.102304,-0.177452,-0.172397,-0.307886,-0.410534,-0.309917,-0.265612,-0.200415,-0.116022,-0.126653,0.127868,0.162826,-0.043137,0.111361,-0.021218,0.267204,0.210128,0.022084,-0.130522,0.019058,0.085602,-0.130313,-0.097820,-0.066611,0.188943,-0.143599,0.129044,0.050265,0.074054,0.096919,0.113634,0.008397,-0.033783,-0.174649,0.116166,0.055617,-0.099159,0.075386,-0.194861,0.082507,0.077247,-0.046274,0.033446,-0.037526,-0.048445,0.131536,0.071394,-0.068463,0.002640,0.093957,0.147213,-0.168264,-0.287141,-0.047808,-0.030352,-0.114177,0.111708,0.077227,-0.082632,-0.056643,0.148532,-0.064264,0.015835,0.111987,-0.031894,-0.070890,0.056659,0.076191,-0.128375,0.078702,-0.090218,-0.120059,-0.048531,0.040548,-0.058438,-0.109488,0.164667,0.155430,0.111749,-0.043657,-0.064245,0.164424,-0.051218,0.008959,0.010234,-0.089312,-0.124339,0.155545,-0.044681,0.006168,-0.026009,0.001126,0.039006,0.069377,-0.118613,0.056201,0.018363,-0.077335,-0.140758,0.108766,-0.030995,-0.118717,0.081817,-0.073943,0.027165,-0.117355,0.070983,-0.089115,-0.131706,-0.097188,0.021630,0.024290,0.088878,-0.045390,0.098856,-0.094176,-0.041870,-0.129860,-0.068709,-0.113832,-0.123936,0.107376,-0.069613,0.082923,0.079223,0.114944,-0.091510,-0.073528,-0.028793,-0.076736,0.177338,0.135267,0.148440,0.112995,0.036866,0.020659,0.153132,0.096147,-0.063113,-0.074241,-0.083199,0.065711,0.060441,-0.000260,0.240515,0.068816,0.049539,0.058069,0.042724,0.229375,0.167468,0.092159,-0.139914,-0.029188,0.005338,0.068633,0.040599,-0.124734,0.052036,0.204145,-0.036056,0.073927,-0.047441,0.075141,-0.118500,-0.013397,-0.140566,-0.074215,0.026154,0.049168,0.047885,0.099149,-0.054416,-0.101393,-0.104684,-0.015496,-0.164974,0.082694,-0.089824,0.059672,0.079378,0.015746,-0.081350,-0.038934,-0.094289,0.069267,0.033516,-0.051103,0.057505,0.162645,0.133446,-0.035830,0.102283,0.087050,-0.037930,0.023321,0.043689,0.050442,-0.052141,0.057659,-0.097339,0.081617,-0.052137,0.052284,-0.063506,-0.054434,-0.114718,-0.022427,0.086837,-0.074655,0.000217,0.020401,-0.039868,0.100429,-0.035270,0.137967,0.103435,0.042776,-0.155738,0.063042,-0.161369,-0.083357,-0.041182,-0.004595,-0.061886,0.055369,0.058977,0.074630,0.008428,0.070997,0.054269,0.153959,0.018103,-0.003974,0.199431,0.217001,-0.109268,-0.060922,0.006669,0.052192,0.074684,0.040291,0.049869,0.032756,-0.129093,-0.056317,-0.026688,0.186478,0.120114,-0.004386,0.051745,-0.045153,0.008708,-0.065497,0.014469,0.096377,0.001184,0.048562,-0.097717,-0.086214,-0.134469,0.008322,0.093868,0.032409,0.059103,-0.032958,0.026927,-0.098347,0.091352,0.002553,-0.057767,-0.041262,-0.020878,0.030742,0.132965,0.052307,0.131720,-0.035596,0.096893,0.076113,0.131454,-0.036015,0.158701,-0.159729,-0.138729,-0.153672,-0.021423,0.038242,0.072561,0.042899,-0.105821,-0.138736,0.044850,-0.154335,0.031799,-0.090218,-0.005366,-0.023904,0.029417,0.098125,-0.136791,0.115568,-0.098391,0.054019,0.027111,-0.090016,0.100100,-0.059840,0.086281,0.107213,0.025023,-0.028976,-0.051553,0.027920,-0.003642,-0.015778,0.034612,0.016393,0.135285,0.084986,0.047433,-0.061053,-0.141557,-0.004320,0.000306,-0.063517,-0.071442,0.019870,-0.040516,-0.052103,0.064666,-0.018377,-0.025437,0.066344,0.123706,-0.127089,-0.100681,-0.122681,-0.071013,-0.042126,-0.036921,0.003239,-0.058378,0.045991,0.034728,0.050871,0.044513,0.091273,0.129043,-0.139976,0.034787,-0.200650,-0.003831,-0.018706,-0.227573,-0.088477,-0.132596,-0.100159,-0.111037,-0.205117,0.119764,0.030505,-0.068960,-0.099607,-0.021326,0.077291,-0.196645,-0.059600,-0.136911,-0.017459,-0.265510,-0.072747,-0.167042,0.077499,0.167633,0.170205,0.020283,0.053274,0.088727,-0.070889,0.053822,0.067824,0.057121,-0.002244,-0.001331,-0.195485,-0.057610,-0.051463,0.237424,0.210105,0.243566,0.092291,0.204841,0.032680,0.191541,0.105287,0.177098,0.076629,-0.128216,0.097670,0.063581,-0.057158,0.220122,0.135509,0.108106,-0.046436,0.112241,0.077486,0.108345,-0.070691,-0.102023,-0.129972,-0.049631,-0.091326,-0.091828,-0.115362,-0.183731,-0.053759,-0.028239,0.114269,0.114838,-0.043956,-0.123748,-0.116220,-0.099627,-0.111152,-0.111893,-0.171535,-0.159861,-0.238172,-0.028829,-0.086434,-0.059295,0.121635,-0.066534,-0.026749,-0.083627,0.095334,0.041324,-0.146045,-0.143580,-0.057302,0.000564,0.057138,0.140615,-0.121931,0.128899,0.138671,0.009471,-0.133914,0.041727,-0.088325,0.105488,-0.111452,-0.016369,-0.140566,0.047926,0.112721,-0.087052,-0.064300,-0.053760,0.024188,-0.144188,-0.048895,0.136823,0.101118,-0.041427,0.094965,-0.120167,-0.082076,0.065120,0.018057,-0.039257,-0.062818,-0.144177,0.115872,-0.065016,0.018963,-0.013991,0.020671,-0.069389,0.029734,-0.087531,0.085085,0.197659,-0.015274,0.058091,-0.005577,0.017297,0.085335,-0.049401,-0.078935,-0.127373,0.097366,-0.098824,-0.027934,0.024556,0.013286,-0.050626,-0.020876,-0.100169,-0.008362,-0.121970,-0.134705,-0.137974,0.013557,-0.049062,-0.097903,0.059989,0.041047,0.008310,-0.084429,-0.164170,-0.007992,-0.105925,-0.104536,-0.066355,0.065217,-0.024500,0.028747,-0.113083,0.088475,-0.057588,-0.014289,0.002800,0.045364,-0.088255,-0.002848,0.111752,0.064444,-0.118320,-0.032545,-0.036571,-0.144949,-0.003354,-0.045798,-0.139783,-0.133345,0.015979,0.115428,-0.047800,-0.100540,-0.143933,-0.118289,0.107015,0.025236,-0.008932,0.016320,-0.061510,-0.121199,-0.109854,0.027166,0.056430,0.078931,-0.033780,-0.072591,-0.067901,0.121350,-0.005589,0.182598,0.170196,-0.095599,0.040451,0.080073,0.013469,0.043635,0.080259,-0.025665,0.080438,-0.060061,-0.038627,0.165633,0.140586,0.111926,0.046866,0.147111,0.167277,-0.016805,0.134760,0.188806,0.194942,-0.108754,0.045590,-0.005118,0.051850,0.175825,0.018459,0.104449,0.111177,-0.041406,0.187169,0.018139,0.131722,-0.066833,-0.130812,-0.105606,0.083792,0.028807,-0.130523,0.068585,-0.102780,-0.189286,0.017498,-0.153720,0.140014,0.168374,0.042369,-0.103998,-0.108346,-0.122314,-0.039789,-0.062316,-0.123523,-0.251569,-0.297173,-0.106206,-0.131496,-0.011716,0.035893,0.090165,0.150900,-0.084572,-0.104504,0.119404,-0.009121,0.001841,-0.081520,-0.074128,-0.038946,-0.035492,-0.006396,0.155005,-0.157526,-0.067462,-0.136790,0.149929,0.002109,-0.027233,0.080137,-0.042014,-0.110936,0.026776,-0.050052,0.076606,0.145121,0.012256,0.021654,-0.080463,0.077676,0.021146,-0.063500,0.085877,-0.031159,0.139284,-0.014910,-0.005765,-0.018961,0.027494,0.104024,0.136798,0.098525,-0.087188,-0.002963,-0.123761,0.017410,0.014272,-0.027957,-0.100620,-0.059928,0.005376,-0.090512,-0.031968,-0.059508,-0.084283,-0.092925,-0.107904,0.153144,0.170780,0.040521,0.140823,0.081218,0.100774,0.136086,-0.100257,-0.000316,0.035044,0.021640,0.084430,0.084488,0.083635,0.137117,-0.055537,0.031949,0.055025,0.005231,0.152115,-0.056017,-0.094927,0.071518,-0.019926,0.091048,0.131727,0.046210,-0.110134,-0.139496,-0.230031,-0.021441,-0.062522,0.165028,-0.014484,0.007529,-0.165634,0.087338,0.065740,-0.005992,-0.046876,-0.070993,-0.143286,-0.175451,-0.113703,-0.062218,0.197315,0.000811,0.013330,-0.121180,0.038718,0.077834,-0.021951,-0.120763,-0.039409,-0.129754,-0.301085,-0.019730,0.046871,0.091279,0.020534,0.087757,-0.167353,0.010459,0.088186,-0.009429,0.015504,-0.068359,-0.144328,-0.033895,-0.082214,0.115477,-0.098997,0.022957,-0.023724,-0.030611,-0.028039,-0.040172,0.153759,-0.052078,0.001582,0.080821,-0.023528,-0.024431,-0.134140,0.012849,-0.026220,0.163882,-0.160811,0.049554,0.026993,-0.046239,-0.053776,0.172061,0.262477,0.057083,-0.037030,-0.056098,0.046288,0.120010,-0.060567,0.045724,-0.116521,-0.038690,0.107442,-0.048654,0.068172,0.066742,0.085991,-0.065658,-0.070279,0.130983,-0.150134,-0.097250,0.130790,0.037975,-0.139360,0.112560,0.158463,0.117246,0.141215,0.104056,0.103981,-0.149218,0.069457,0.076507,0.058351,0.059344,0.079412,-0.083340,0.137886,0.086596,-0.002346,-0.153499,0.047389,0.078400,0.025084,-0.074440,-0.156975,0.028762,0.096544,0.128332,0.011489,-0.017295,-0.044577,-0.032092,-0.109619,0.073729,-0.164110,0.106374,-0.050709,0.061835,-0.019014,0.063000,-0.119504,0.035362,-0.158448,-0.171039,0.005454,-0.059537,0.021009,-0.127101,-0.200567,-0.055234,-0.194311,-0.060641,-0.079494,0.000660,-0.210535,-0.136958,-0.084375,0.083613,-0.063643,-0.046937,0.051785,0.086907,0.113259,0.067442,0.111189,0.095461,-0.166934,-0.075807,-0.112925,0.041274,-0.032650,-0.018531,0.165592,-0.092142,0.137656,0.027086,0.090133,0.206450,-0.110057,-0.070731,0.130969,0.088410,-0.118765,0.075388,-0.011879,0.099697,-0.267184,-0.063515,0.052394,0.119718,-0.023975,-0.093672,-0.011417,0.036332,-0.113646,-0.000461,-0.073960,-0.051005,0.050496,-0.157936,-0.097414,-0.095446,-0.091037,-0.031171,0.112810,-0.011832,-0.078901,0.077699,-0.015377,0.078370,0.023215,0.071953,-0.017289,-0.177280,-0.106168,0.070090,-0.018803,-0.019804,0.053180,0.018900,0.088860,-0.071655,0.003675,-0.000001,0.053476,-0.049224,-0.144840,-0.093102,-0.187590,0.126423,-0.142571,-0.155351,0.121930,0.095018,0.036242,-0.052244,0.126645,0.165737,-0.014996,-0.108449,-0.015678,-0.016011,0.059741,0.031171,0.063236,-0.001094,0.121576,0.049888,0.192864,-0.053850,-0.009907,0.087261,-0.163991,-0.073530,-0.100316,0.116897,0.035439,0.099354,-0.194788,0.058103,0.073767,-0.050201,0.017513,0.162539,-0.069966,-0.069039,-0.058472,-0.027702,0.022816,-0.155770,0.142157,0.092696,0.003655,0.160491,-0.125294,0.131875,0.072190,-0.032297,-0.000292,-0.009883,0.019804,0.088548,0.035262,-0.155056,-0.126698,0.121263,0.037507,0.126770,0.080282,-0.043915,-0.029490,-0.015356,0.013756,-0.018408,-0.119566,-0.053294,-0.090579,-0.085287,-0.096000,-0.057804,-0.013012,0.069203,-0.011840,0.049801,-0.065627,0.112437,-0.009429,-0.004698,-0.067382,-0.034189,0.016878,0.055849,-0.219439,-0.144401,-0.050753,-0.050759,-0.134924,0.148013,0.087912,-0.073600,-0.142051,0.029347,-0.103303,0.022397,-0.124060,-0.174963,-0.125402,-0.037893,-0.159332,-0.028422,0.078481,-0.185750,-0.002830,0.043602,-0.065683,-0.051617,0.044233,-0.029779,-0.205102,-0.170610,-0.075246,-0.221284,-0.064911,0.075330,-0.150145,-0.091019,0.107243,-0.047302,0.088172,-0.087349,-0.053242,0.016150,0.010363,0.025375,-0.219816,0.125426,-0.096059,0.082070,-0.012873,0.140405,-0.018684,0.111545,0.182081,0.226185,0.181114,0.245841,0.013932,0.052907,-0.082856,-0.025578,-0.199774,0.088268,-0.121502,0.171255,-0.080484,0.099066,0.093317,-0.093079,-0.101170,0.255557,0.085153,0.093138,0.014655,-0.106342,0.048064,0.019394,0.139369,0.205889,-0.044075,0.165864,-0.040636,-0.032503,-0.047177,0.132571,-0.037087,0.079230,0.065437,0.135523,-0.069871,-0.101318,0.002453,0.126439,0.044754,-0.064179,-0.171315,0.051906,-0.010646,0.074843,-0.208160,0.018317,-0.026113,-0.001651,0.002887,0.020112,0.049519,0.008363,-0.081692,-0.159774,0.006034,-0.030916,0.138949,0.088713,-0.004687,-0.041467,0.063301,0.060360,0.084862,-0.134454,-0.123951,-0.094960,-0.009894,0.093350,-0.023326,0.026385,0.009203,0.086997,-0.096126,0.118915,-0.140573,0.115348,-0.130211,0.121654,-0.130607,0.055618,-0.047840,-0.155384,0.146693,-0.101798,-0.014491,0.073952,-0.115160,-0.048846,-0.089873,-0.132229,0.069335,0.054450,0.065786,0.128579,0.078142,0.085695,0.059163,0.033326,-0.029417,-0.103920,0.106850,-0.080604,0.078827,-0.005031,-0.079770,0.022548,0.025173,-0.009700,0.082799,-0.052928,0.003547,-0.189056,-0.101122,0.058301,-0.097170,-0.050039,-0.227012,-0.129202,-0.118636,0.108553,0.009599,0.001593,0.115366,-0.109272,0.151929,-0.022604,0.146297,-0.151329,-0.023067,-0.023868,0.020468,-0.141268,0.058280,0.021055,0.167282,0.040733,0.037834,0.033676,-0.085251,-0.056315,-0.097291,-0.031067,0.013974,0.064157,0.073601,-0.044565,0.063872,0.051499,0.082283,0.123244,0.145498,0.051119,0.039455,0.147755,0.102237,0.068578,-0.019711,-0.013443,-0.081694,-0.068974,-0.001276,0.109747,0.102438,0.236093,0.056771,0.066390,-0.038034,0.032591,-0.113219,0.034743,0.158392,-0.036455,-0.076135,0.023469,0.011138,0.053039,0.161194,-0.095005,0.136248,-0.117325,-0.069055,-0.036418,0.122436,-0.013016,-0.051694,-0.127223,-0.128789,0.003298,-0.132885,0.081801,0.125512,0.055300,0.058675,0.064967,-0.012816,0.123439,0.025827,-0.083835,-0.037696,-0.199745,0.004356,-0.010884,-0.103330,0.017242,-0.080898,0.038652,0.108971,-0.006535,0.130050,0.096018,-0.065117,-0.018178,0.100660,-0.050221,0.003960,-0.120700,0.019253,-0.079611,0.075375,0.013727,-0.021603,0.056150,0.146272,-0.010955,0.057905,0.011471,-0.043932,0.088578,0.068435,0.100017,0.097504,-0.162769,0.007761,-0.042514,0.070186,-0.005457,0.238062,-0.020282,0.230557,0.099564,0.064560,0.101036,-0.106129,-0.132513,-0.019693,0.076212,-0.008368,0.127600,0.020333,0.085059,0.105024,0.062936,0.047717,-0.131559,0.076971,-0.088585,-0.056999,-0.008734,-0.075948,-0.125712,-0.053050,0.076296,0.115930,0.004893,0.012782,-0.014881,0.094933,0.075659,-0.002292,0.098884,-0.090348,0.046789,-0.033307,-0.034179,-0.021516,-0.024026,-0.020375,-0.015868,0.056999,-0.028152,-0.036204,0.014971,0.081649,0.055892,0.016385,-0.213941,-0.087536,0.043333,0.121367,-0.030252,-0.047349,-0.068455,0.041970,-0.067804,0.023708,-0.077175,0.093597,-0.086492,-0.138878,0.030516,0.094476,-0.036454,-0.021371,-0.122669,-0.090729,-0.079544,0.022053,0.065695,-0.052514,-0.152451,-0.071487,0.023088,-0.087272,0.097288,0.142904,0.112966,0.025871,-0.140433,-0.129536,-0.116425,-0.056629,-0.094417,-0.149999,-0.045730,0.031046,-0.112639,0.034767,0.196770,0.141253,-0.032476,0.067736,0.013664,-0.020566,0.068141,0.001077,0.057199,0.042046,0.031422,-0.068352,0.000085,0.195164,0.062855,0.035127,0.016135,-0.024555,-0.123190,0.003735,-0.096545,-0.097035,-0.120981,0.034763,-0.003509,0.008460,0.132877,-0.018994,0.053160,-0.101555,-0.187323,-0.066566,-0.201429,0.131646,0.084399,-0.093690,-0.184866,0.001385,-0.012907,0.125057,0.077408,0.090262,-0.035887,-0.203467,-0.022641,-0.141067,-0.053579,-0.079422,0.083367,-0.062192,-0.143256,-0.041573,-0.083590,0.038883,-0.074476,-0.099297,-0.074177,-0.128655,0.006814,-0.034137,0.052049,0.050214,0.037996,-0.042977,0.001528,0.102624,-0.017446,-0.073439,-0.032305,-0.105858,-0.033400,-0.119624,0.024097,0.137606,-0.128830,0.075412,-0.003200,-0.174662,0.014273,0.083987,0.088216,-0.117946,-0.000144,-0.014920,0.148553,0.153858,0.119180,-0.150141,-0.099416,-0.140492,0.058348,0.156739,0.133611,0.137987,-0.062761,0.135479,